866 100
turkcell 0.19676828 -0.017523505 -0.13795651 0.46700543 0.27156508 0.2194054 -0.32760093 -0.13360515 0.028118823 0.018513493 0.28020057 0.30613461 -0.19114861 -0.40306523 -0.10568573 0.25405997 -0.14461321 -0.2425548 -0.01939732 -0.2622866 0.082414955 -0.20323928 0.14595856 0.2590192 0.13343318 -0.21372467 -0.042828493 -0.34707814 -0.45675984 -0.23131579 -0.061563168 0.24502374 -0.18140763 -0.27564761 -0.16054209 0.33949995 0.092732884 0.23315953 0.37271947 -0.18683138 -0.30205163 -0.26002678 0.43925008 -0.039549079 0.29321811 -0.045758359 -0.57572079 -0.56369013 -0.30107498 -0.22646195 -0.32326922 0.032641131 -0.26792157 0.23291451 0.5390628 -0.17143963 0.09929537 0.096045464 -0.70543402 0.083517037 0.25910583 -0.35876599 0.26867461 0.19906385 -0.15885462 -0.26179129 0.22432646 0.42688581 0.10865601 -0.0737646 0.21974413 0.20805082 -0.40475607 -0.1474206 -0.29067975 0.46178919 0.065739095 -0.51942813 -0.12061502 0.19508839 -0.39791033 0.24879867 -0.33640042 0.14403179 0.53028178 -0.024725873 0.30316952 -0.14161715 0.19390337 -0.5040195 -0.60654461 0.41595542 0.26565045 0.34009302 0.13255936 0.24575794 0.28487095 0.22696608 0.098849647 0.50748253
mesaj 0.10881986 -0.0087707341 -0.081997506 0.25142685 0.14103815 0.12082116 -0.17999896 -0.073243827 0.017658316 0.011091677 0.14654823 0.16230696 -0.10347202 -0.2124759 -0.055917416 0.14087987 -0.073914573 -0.13361496 -0.0083877528 -0.14914355 0.048976064 -0.11158069 0.082852304 0.13922395 0.071643867 -0.12164357 -0.020216251 -0.19075526 -0.24337977 -0.12124791 -0.031876717 0.13043723 -0.10311593 -0.14549762 -0.081775613 0.18189892 0.049481008 0.12995782 0.20152181 -0.10387722 -0.1613811 -0.1460111 0.23284101 -0.026276093 0.16093898 -0.02572486 -0.30812103 -0.29817978 -0.16261114 -0.11855596 -0.17085288 0.015418734 -0.14185871 0.12744389 0.29582635 -0.094888888 0.055013191 0.045760531 -0.38514286 0.04129022 0.14613356 -0.19996849 0.14870824 0.10728674 -0.08964324 -0.14706933 0.11789031 0.22848418 0.061223097 -0.03848156 0.11268962 0.11391371 -0.2169051 -0.073321976 -0.15729442 0.25226235 0.032101322 -0.28470129 -0.071128272 0.10533565 -0.20757741 0.13077307 -0.17771278 0.076506108 0.28901419 -0.018896453 0.16149244 -0.077457041 0.098737672 -0.26924291 -0.32210225 0.22785844 0.14135122 0.18491526 0.071339503 0.1333759 0.15757859 0.12098869 0.051262543 0.26753587
güzel 0.089866124 -0.0098326504 -0.068340689 0.21036609 0.12450906 0.10021846 -0.14543779 -0.059697043 0.017087836 0.0040812469 0.11804756 0.13679515 -0.087219171 -0.18287565 -0.040868636 0.11032961 -0.059403952 -0.10572232 -0.011911668 -0.11670027 0.045073625 -0.086801328 0.063821167 0.11812145 0.06167458 -0.093348481 -0.021865496 -0.15539245 -0.2001535 -0.09700425 -0.030256057 0.10673232 -0.074130751 -0.12416601 -0.06571722 0.15431167 0.039297372 0.098691933 0.17016847 -0.084987827 -0.13190085 -0.11170611 0.20067932 -0.017078215 0.13537587 -0.028549062 -0.25869036 -0.2436277 -0.13429926 -0.10332574 -0.13679075 0.015095391 -0.11398716 0.10181049 0.23719978 -0.07496728 0.046768956 0.048662167 -0.31362775 0.041918561 0.11699729 -0.15392013 0.11405101 0.09320572 -0.068235815 -0.11526767 0.096903108 0.19448787 0.046555806 -0.039858729 0.094330028 0.087443583 -0.18196535 -0.060268868 -0.1297318 0.19689572 0.028080333 -0.23116156 -0.057820816 0.089460656 -0.17616494 0.11406746 -0.15093127 0.065900505 0.2352794 -0.012936342 0.13922337 -0.059924684 0.080478281 -0.22582681 -0.26361516 0.18701963 0.11334373 0.1567329 0.065366074 0.10725611 0.1177247 0.10068008 0.047709305 0.22064877
bi 0.10227782 -0.006736313 -0.080387719 0.25234789 0.14373358 0.11943027 -0.1730987 -0.072416052 0.015796468 0.0085172774 0.151722 0.16112582 -0.099219114 -0.21283314 -0.055832937 0.13617456 -0.076101542 -0.1355764 -0.01217559 -0.14828052 0.046364065 -0.11337221 0.084456027 0.13995592 0.071090721 -0.1194923 -0.02169982 -0.191708 -0.24364364 -0.12468506 -0.03664238 0.13736369 -0.10018517 -0.14400195 -0.082065247 0.18338063 0.048239145 0.12293085 0.20480916 -0.099914782 -0.16136798 -0.13941169 0.23851237 -0.019194478 0.15367813 -0.02390858 -0.31493232 -0.29841533 -0.15773368 -0.12365695 -0.17294079 0.022581389 -0.14532912 0.1248816 0.29081869 -0.088642493 0.054238785 0.044937145 -0.38397625 0.046055164 0.13850108 -0.19798256 0.14643319 0.10618504 -0.089417078 -0.14698972 0.12500745 0.2279003 0.054427918 -0.044674236 0.11859255 0.11027959 -0.21654865 -0.079237007 -0.15240374 0.24703512 0.031782858 -0.27715957 -0.067418084 0.10476423 -0.210805 0.13231534 -0.17873836 0.073192984 0.28194433 -0.018289799 0.15909341 -0.078421369 0.10474414 -0.2683506 -0.32874289 0.2276489 0.14315687 0.19002326 0.076571092 0.12941398 0.15595996 0.12057505 0.059182368 0.27100286
hayat 0.065418005 -0.0089790467 -0.045925781 0.16471499 0.099808812 0.081601702 -0.11852981 -0.050146818 0.012320277 0.0090361172 0.093121551 0.11147062 -0.060332097 -0.13697912 -0.040939122 0.090401389 -0.044487726 -0.088881597 -0.0071314285 -0.091465995 0.030491762 -0.073133454 0.051947739 0.094302252 0.05024305 -0.079829104 -0.01057783 -0.12657298 -0.1555208 -0.082816988 -0.022107597 0.084554762 -0.06631247 -0.097668879 -0.058684405 0.12124858 0.029141773 0.076231971 0.12874238 -0.06874574 -0.11002087 -0.089360796 0.15034397 -0.01538917 0.10327038 -0.022194048 -0.19769099 -0.20208588 -0.10751469 -0.08577615 -0.11509545 0.011906465 -0.08730308 0.083932385 0.18704221 -0.061205 0.030945871 0.038474187 -0.25449395 0.033102557 0.086243831 -0.12547323 0.091608904 0.073399499 -0.052349813 -0.08611051 0.076674104 0.15093134 0.040698655 -0.02802919 0.081531599 0.074857667 -0.14558634 -0.051666219 -0.099851407 0.16594407 0.023953969 -0.1848612 -0.046185568 0.068037629 -0.14002283 0.093340471 -0.11488502 0.05220082 0.18624729 -0.013867032 0.10290964 -0.053731784 0.06577906 -0.17834936 -0.20881993 0.14798959 0.088943772 0.11946261 0.05262889 0.083541617 0.096269734 0.081735812 0.037718602 0.18005458
ben 0.099549562 -0.0064909658 -0.067382738 0.23614921 0.1374816 0.10884754 -0.16744111 -0.071867503 0.0085758986 0.0080040032 0.14161223 0.15730724 -0.091687113 -0.20291048 -0.057008002 0.12349394 -0.07092604 -0.12775138 -0.016605379 -0.13180141 0.044133712 -0.10058413 0.074783079 0.12978421 0.071878619 -0.10999631 -0.018941784 -0.17724463 -0.22643304 -0.11262608 -0.032795351 0.12619065 -0.091620281 -0.14265792 -0.080410235 0.16544783 0.052655503 0.1206369 0.18707517 -0.10011292 -0.1521026 -0.12945567 0.22463357 -0.026671069 0.14378271 -0.025735836 -0.28935012 -0.28201461 -0.15545492 -0.11791097 -0.15687446 0.015727496 -0.12883352 0.11090901 0.27356648 -0.089192539 0.053937662 0.043148011 -0.36182705 0.040986508 0.12937009 -0.17864896 0.1377542 0.096807674 -0.076909512 -0.13333438 0.11987035 0.21012631 0.056514207 -0.035348106 0.11243518 0.10022894 -0.19785981 -0.069725975 -0.14955384 0.23348504 0.033786323 -0.26610103 -0.058283627 0.099067733 -0.19752865 0.13018273 -0.16495086 0.071033411 0.26675794 -0.0090931645 0.1527968 -0.069456466 0.099108979 -0.25314638 -0.3093273 0.20876016 0.1319375 0.16886158 0.064230837 0.12425116 0.14210682 0.10975748 0.052180003 0.25818267
var 0.10978363 -0.014043932 -0.073139399 0.25486851 0.14427713 0.11614422 -0.17929141 -0.068285078 0.010494813 0.0050968518 0.15695368 0.16775528 -0.10298789 -0.22214001 -0.05604542 0.13334998 -0.07558503 -0.13009907 -0.0084436117 -0.14698644 0.045613211 -0.1115118 0.078595854 0.14596064 0.07416857 -0.11974896 -0.021791453 -0.1914663 -0.24754287 -0.1214366 -0.036654379 0.13135475 -0.10061929 -0.14884362 -0.088437088 0.18620318 0.055808671 0.12622625 0.20313044 -0.11026487 -0.16777858 -0.14365317 0.24574398 -0.025709858 0.15976973 -0.027637864 -0.31612009 -0.3037912 -0.16527037 -0.1201022 -0.17274439 0.015465004 -0.14353217 0.12398216 0.29902428 -0.090470113 0.054979239 0.046897113 -0.38968906 0.04744909 0.14530179 -0.1994108 0.1514039 0.1098077 -0.090370201 -0.14575277 0.11968979 0.23882955 0.05377461 -0.0384789 0.12270679 0.11141508 -0.21880226 -0.081373394 -0.16382448 0.24963003 0.036517106 -0.28727457 -0.066119738 0.10312032 -0.21967359 0.13667291 -0.18492477 0.08452215 0.28827557 -0.016244913 0.16500327 -0.0827512 0.10404299 -0.27339095 -0.33528861 0.22971371 0.14697346 0.18316698 0.072239555 0.12924407 0.1582119 0.12811953 0.06095589 0.28075197
paylaşınca 0.060432095 -0.0014997531 -0.042593081 0.14538695 0.080534697 0.069129027 -0.11101699 -0.041671347 0.010499115 0.0028165798 0.091671675 0.096496053 -0.059077591 -0.13033244 -0.033780798 0.073166355 -0.039893314 -0.080807477 -0.010360866 -0.085235268 0.032414667 -0.064790674 0.048339743 0.088030703 0.040006358 -0.071360275 -0.012774386 -0.10866618 -0.14705539 -0.072828464 -0.020443426 0.078203723 -0.056349635 -0.081873819 -0.045825887 0.10341033 0.026009031 0.072416402 0.12102868 -0.06554275 -0.098322913 -0.084796123 0.1413645 -0.015289524 0.097223617 -0.021373997 -0.18653989 -0.17291681 -0.091254182 -0.06957633 -0.10506176 0.013810801 -0.079935864 0.075752445 0.16520111 -0.051854245 0.03700297 0.033935353 -0.22495373 0.032045007 0.081275642 -0.11280933 0.0844597 0.065920413 -0.044419955 -0.082115032 0.066761628 0.13555542 0.028356394 -0.025944741 0.075086243 0.065932661 -0.12774603 -0.043418881 -0.091970801 0.14219913 0.026131237 -0.16649872 -0.04026277 0.064846963 -0.11873677 0.08212027 -0.099989593 0.04859307 0.16071945 -0.0031011107 0.098792993 -0.040246025 0.053649873 -0.1585518 -0.18162969 0.13169296 0.079196662 0.11242618 0.04380757 0.079188883 0.088016592 0.06904503 0.035222489 0.15687051
superonline 0.10234915 -0.013153048 -0.074494489 0.22634812 0.1348851 0.10881961 -0.16269983 -0.067235827 0.016338335 0.0021290607 0.14137477 0.15580307 -0.097203322 -0.1959918 -0.04656532 0.12067436 -0.06843359 -0.12146406 -0.012286363 -0.13241975 0.044418514 -0.1072226 0.074621588 0.13417999 0.064955138 -0.10547538 -0.022450645 -0.17557073 -0.2280829 -0.1137869 -0.029421618 0.11910257 -0.087218456 -0.1316828 -0.076075912 0.16324258 0.044033144 0.11264062 0.18294978 -0.099182554 -0.15063448 -0.13299553 0.22113097 -0.018390868 0.14270516 -0.023229504 -0.28173509 -0.28160539 -0.15197186 -0.11543489 -0.15616226 0.016578848 -0.12954473 0.10894267 0.2662985 -0.086156078 0.053692251 0.048792191 -0.35733876 0.040215481 0.13516651 -0.18100895 0.12965187 0.096216083 -0.076237619 -0.13500595 0.11642614 0.21285667 0.054654088 -0.036190793 0.10327835 0.10155052 -0.19974339 -0.075681813 -0.14750595 0.22825165 0.036342073 -0.25857624 -0.064458206 0.098032184 -0.19116563 0.12662123 -0.16990966 0.069178194 0.26470482 -0.017450847 0.15587299 -0.074867725 0.093931496 -0.24991688 -0.30340984 0.20869538 0.13104948 0.16557375 0.071471401 0.11626748 0.14221196 0.1161297 0.049823295 0.25357977
mi 0.088036932 -0.0097292736 -0.06321457 0.22004429 0.12979934 0.10129539 -0.15740469 -0.058484674 0.0076852273 0.010211518 0.12637013 0.13804507 -0.090606757 -0.18870826 -0.044723362 0.11233301 -0.067557864 -0.1108669 -0.013185633 -0.1273654 0.04485371 -0.091554858 0.06468574 0.12438381 0.065581635 -0.10564338 -0.026100919 -0.15606117 -0.21329252 -0.10876676 -0.027423747 0.11323687 -0.088279009 -0.12676585 -0.069157302 0.15696068 0.04787435 0.10816056 0.17297919 -0.092993528 -0.13595395 -0.11773739 0.20362619 -0.016059518 0.13831973 -0.022900106 -0.26292688 -0.25618234 -0.13692366 -0.099989571 -0.14737724 0.013623211 -0.12284548 0.11106116 0.25030002 -0.081387162 0.048469249 0.044743735 -0.32693669 0.03861703 0.12126927 -0.16877122 0.12806793 0.090634972 -0.072234288 -0.11948716 0.10941008 0.19944081 0.045518942 -0.034552433 0.097911462 0.098049954 -0.18777433 -0.064321756 -0.12933625 0.21674922 0.031938523 -0.24175985 -0.054013956 0.09397503 -0.18517065 0.11269639 -0.14903246 0.071014874 0.24854273 -0.01499935 0.14090408 -0.067472659 0.09137696 -0.23406477 -0.27464306 0.18940444 0.12658754 0.15642828 0.06655962 0.11416015 0.13527374 0.1084191 0.05186281 0.23651311
yok 0.088109665 -0.011891035 -0.063541517 0.20437819 0.12355214 0.099009275 -0.1476962 -0.060424596 0.0059915334 0.007055229 0.1253764 0.13265584 -0.077829972 -0.1729499 -0.045808747 0.10768546 -0.064050414 -0.11125273 -0.015406423 -0.11362903 0.038534846 -0.095514946 0.059521515 0.11080782 0.062592633 -0.098408289 -0.024107665 -0.14945181 -0.20345244 -0.1045099 -0.024755714 0.11276917 -0.084982969 -0.11969519 -0.073682047 0.14757948 0.042994697 0.10924864 0.16595478 -0.085100427 -0.12970951 -0.11786342 0.19427115 -0.021171486 0.13369359 -0.016898444 -0.25250936 -0.24485298 -0.13612446 -0.099597439 -0.1421355 0.010568373 -0.11568491 0.096180364 0.2396972 -0.075955614 0.04141508 0.042711046 -0.3127737 0.032993454 0.12028751 -0.16278747 0.11735857 0.091603883 -0.072082087 -0.11403603 0.10042543 0.18455872 0.046370935 -0.029244626 0.09385103 0.092983194 -0.17736788 -0.061602253 -0.12938792 0.20249294 0.025245234 -0.22717184 -0.050148264 0.083438754 -0.17477119 0.11275601 -0.14823806 0.061822459 0.23196323 -0.010828402 0.13744335 -0.064754657 0.085062616 -0.22368123 -0.26373017 0.17935464 0.11518481 0.15046452 0.058770217 0.11163832 0.12473205 0.094427712 0.040067732 0.22352558
tl 0.1054619 -0.0048798472 -0.073033825 0.24195778 0.13925824 0.1176626 -0.17332928 -0.0656019 0.010600031 0.0043090074 0.14693648 0.16261473 -0.095934242 -0.20323767 -0.055847753 0.13207212 -0.076229915 -0.12653789 -0.010174452 -0.14247279 0.049529802 -0.10604469 0.076263793 0.13608943 0.072062761 -0.11749018 -0.029124759 -0.17827815 -0.23593476 -0.12084351 -0.031403881 0.13256507 -0.096574739 -0.14153902 -0.079414107 0.17912601 0.054130193 0.12257778 0.18952368 -0.096546605 -0.1548176 -0.13829739 0.22787912 -0.022464523 0.14772715 -0.021404987 -0.29838124 -0.29536727 -0.15467766 -0.11453892 -0.17249188 0.013317738 -0.13925499 0.11782029 0.27834705 -0.087202981 0.05011715 0.050373558 -0.36959478 0.043960508 0.13876235 -0.18800089 0.13557467 0.10185255 -0.085383698 -0.13299081 0.1192375 0.22514364 0.053136107 -0.042525414 0.11655087 0.11001072 -0.20888697 -0.070672132 -0.15443045 0.24235886 0.037346058 -0.27312243 -0.059874564 0.10101749 -0.20726648 0.13140149 -0.17083223 0.071519032 0.2756564 -0.014192159 0.15501042 -0.07837712 0.097049259 -0.26082832 -0.31029278 0.21974434 0.14534901 0.17416959 0.074199773 0.13087936 0.15139358 0.11959558 0.056221217 0.26760533
internet 0.10285562 -0.0037215133 -0.074904695 0.23958637 0.13644612 0.11004187 -0.17076214 -0.063009873 0.015902799 0.0039149206 0.13717167 0.15500651 -0.090224065 -0.19978364 -0.055833604 0.12804374 -0.075797975 -0.12558699 -0.0098930541 -0.13166216 0.043105733 -0.10135969 0.073074579 0.13262419 0.072044775 -0.11428507 -0.020632789 -0.17113884 -0.23358312 -0.11447362 -0.037985511 0.12876901 -0.097910762 -0.14210029 -0.077900141 0.17623395 0.043913506 0.11634234 0.19019563 -0.094554424 -0.15544073 -0.13183591 0.22177842 -0.023445396 0.14829372 -0.029333351 -0.29434034 -0.28894946 -0.15414385 -0.1189644 -0.1604071 0.017262314 -0.13410106 0.11645468 0.27891129 -0.091818206 0.053107966 0.045804966 -0.36568928 0.043364987 0.13661209 -0.18926845 0.13281384 0.097274169 -0.074817635 -0.13056204 0.11104415 0.2139886 0.048609521 -0.034637675 0.11491796 0.10387068 -0.20368657 -0.072981931 -0.14276546 0.2391361 0.034160536 -0.26598522 -0.06076324 0.10214231 -0.19868612 0.13137622 -0.16668423 0.076403759 0.26918405 -0.016463831 0.15380871 -0.074043937 0.096949548 -0.25683284 -0.30580235 0.21532091 0.13687414 0.17880137 0.066988356 0.12716947 0.1404157 0.11583548 0.054898206 0.26086578
bana 0.08661335 -0.011775546 -0.065400265 0.20938414 0.12534985 0.092137344 -0.15100613 -0.058458414 0.010386672 0.0061728717 0.12317348 0.13272288 -0.081038855 -0.18175146 -0.043493096 0.11239168 -0.065311149 -0.11382205 -0.012097754 -0.11807563 0.034330659 -0.092524581 0.067795448 0.11484923 0.058669139 -0.10118413 -0.020955909 -0.15612027 -0.20872687 -0.10545719 -0.027155327 0.10904933 -0.076851502 -0.11709884 -0.07523042 0.14797658 0.044627514 0.10177878 0.16677915 -0.084228002 -0.13581912 -0.11276606 0.19968453 -0.02135374 0.13248733 -0.018894235 -0.25979146 -0.25513753 -0.13617292 -0.10250287 -0.14650191 0.018858681 -0.1167888 0.097775206 0.23914194 -0.076060317 0.047139969 0.042414092 -0.32211035 0.036772985 0.11926953 -0.15971977 0.12438457 0.092952549 -0.067435004 -0.12131353 0.09990751 0.19249631 0.04787571 -0.035223618 0.096345462 0.09305729 -0.18290359 -0.063268416 -0.13261801 0.20996971 0.034555297 -0.23567553 -0.055505671 0.081929184 -0.17792982 0.11014435 -0.15297697 0.061086461 0.23660028 -0.0092118857 0.13274524 -0.064920895 0.084038943 -0.22120246 -0.27475581 0.18371591 0.11953864 0.15254994 0.059709385 0.10976881 0.12503859 0.10415508 0.045108821 0.2232562
kadar 0.086708598 -0.0094313258 -0.061337639 0.19536945 0.11643205 0.092768751 -0.13682161 -0.051540509 0.010165201 0.0087004937 0.1187384 0.12568139 -0.082455285 -0.16303757 -0.046458524 0.10443342 -0.056336291 -0.10049002 -0.013822615 -0.11212198 0.03643408 -0.090118676 0.062738985 0.11258864 0.053031143 -0.086531751 -0.019542031 -0.14264514 -0.18545331 -0.094718724 -0.029069686 0.1043716 -0.077174239 -0.11689938 -0.062781572 0.14463639 0.035844941 0.10233987 0.15948014 -0.084436469 -0.12617673 -0.11094902 0.18348221 -0.021824973 0.12050597 -0.022214862 -0.24467123 -0.23587021 -0.12223725 -0.090799972 -0.13261782 0.018182281 -0.11437525 0.095028482 0.22163698 -0.07256452 0.041083496 0.038040642 -0.29911393 0.029777048 0.11226751 -0.1539126 0.108451 0.079801932 -0.068836704 -0.1151943 0.09447401 0.17738652 0.040385514 -0.030043542 0.09445221 0.085179619 -0.16531873 -0.060883515 -0.11827256 0.1918883 0.026178967 -0.21589991 -0.048700005 0.082394496 -0.16962248 0.1032568 -0.1381384 0.06242846 0.22071953 -0.0091362186 0.12624373 -0.059410822 0.083330102 -0.21037568 -0.25563303 0.17496376 0.11740404 0.13834502 0.060338255 0.10601841 0.11597077 0.097055323 0.040908534 0.20992707
beni 0.090158597 -0.010947658 -0.06892778 0.22140256 0.1305375 0.10655808 -0.1590409 -0.057511251 0.014528596 0.0090826619 0.13560857 0.14291468 -0.08345025 -0.18472698 -0.054122109 0.11935125 -0.06833373 -0.11525198 -0.0070456835 -0.12442183 0.037311904 -0.099307247 0.065602943 0.12599561 0.059530251 -0.10581537 -0.024216367 -0.16424772 -0.21388483 -0.10816167 -0.027234247 0.11735502 -0.082196549 -0.12979975 -0.076183356 0.15897 0.043494146 0.11066648 0.17596143 -0.093496084 -0.13592525 -0.12601419 0.2062912 -0.022533428 0.14135815 -0.025859339 -0.26818553 -0.26159739 -0.13639227 -0.10982132 -0.1503558 0.011641662 -0.12438741 0.10867085 0.24811663 -0.076394685 0.049481776 0.046038091 -0.32783791 0.038900621 0.12170214 -0.1689831 0.12283988 0.096763112 -0.072717085 -0.12018654 0.10402292 0.19556703 0.048795424 -0.035064548 0.10445683 0.10030484 -0.183184 -0.06622868 -0.13531019 0.21374303 0.034151539 -0.24627957 -0.055978078 0.091299757 -0.18286118 0.12164006 -0.15367526 0.069438487 0.24182309 -0.017436985 0.14331903 -0.06656123 0.090629734 -0.23918827 -0.28222656 0.19904894 0.13003913 0.15671076 0.062801734 0.11474904 0.13736974 0.10361064 0.051618267 0.23395345
iyi 0.087909199 -0.0060080956 -0.055257417 0.1998333 0.11816125 0.091113113 -0.13596094 -0.057072319 0.0075519755 0.0064670476 0.11515373 0.12836131 -0.082283422 -0.16705294 -0.041268889 0.10394298 -0.058340207 -0.099277437 -0.0080406154 -0.11668283 0.032230996 -0.087341867 0.066253498 0.11482322 0.058102727 -0.096191257 -0.022108043 -0.14187762 -0.18708028 -0.096799977 -0.025450602 0.10048062 -0.073831193 -0.11083781 -0.06620878 0.14305514 0.036267582 0.094660714 0.15938592 -0.075947635 -0.13009907 -0.1098968 0.18909328 -0.021467941 0.12615958 -0.019323858 -0.2374395 -0.23187983 -0.12617521 -0.091954969 -0.13674389 0.017956626 -0.10654557 0.09283784 0.22428201 -0.076170512 0.043051518 0.035264876 -0.30206546 0.038101465 0.10927494 -0.14828703 0.10887551 0.080612324 -0.06404569 -0.11461445 0.099639699 0.17535785 0.040133115 -0.035552382 0.087657057 0.087144904 -0.16630842 -0.056195404 -0.12303507 0.19162269 0.026429417 -0.21737707 -0.048089597 0.07995569 -0.1633004 0.10041249 -0.13971958 0.056251675 0.22592272 -0.012752573 0.1277542 -0.06525819 0.077358209 -0.21383245 -0.25745571 0.17400625 0.11771978 0.14820634 0.057983879 0.098572642 0.11523402 0.096984237 0.041924905 0.21607824
sen 0.083966978 -0.0029829014 -0.066051409 0.20611131 0.1220196 0.098099545 -0.14262749 -0.058671806 0.0093131848 0.0057660267 0.12012802 0.13107467 -0.077068351 -0.17242663 -0.048945524 0.10565992 -0.058275029 -0.11023974 -0.014781547 -0.11807855 0.034218043 -0.092423402 0.059068106 0.11080793 0.05970072 -0.091034845 -0.018474128 -0.1485312 -0.20230666 -0.10205465 -0.033028692 0.10790048 -0.080955431 -0.11706284 -0.064529248 0.14625978 0.046350643 0.10597366 0.16415943 -0.081392653 -0.13500156 -0.11373823 0.19157988 -0.015583589 0.12357256 -0.020465204 -0.24951541 -0.24085705 -0.12751277 -0.09954793 -0.13601278 0.014646742 -0.11823408 0.096743979 0.23276506 -0.069799021 0.038979203 0.040007439 -0.30756304 0.038831268 0.1121967 -0.16261534 0.11685807 0.087399803 -0.066257067 -0.1150888 0.098051153 0.1858017 0.044070851 -0.035125446 0.099596091 0.091033868 -0.17211394 -0.065937452 -0.12192952 0.199194 0.025286274 -0.22586533 -0.057706159 0.085552752 -0.16905951 0.11146248 -0.14436221 0.06247931 0.23090255 -0.01306601 0.13508478 -0.066336632 0.082841523 -0.22053736 -0.26107791 0.18120377 0.12107205 0.1492108 0.059111018 0.10925056 0.12318945 0.098960079 0.045565795 0.22357403
cok 0.077474892 -0.0061346721 -0.05769993 0.18062903 0.11090739 0.089303777 -0.12974246 -0.05598757 0.010983696 0.0056331218 0.11335619 0.12096185 -0.076993182 -0.15678456 -0.039382186 0.10218584 -0.05497878 -0.093931645 -0.014048068 -0.10766903 0.03649063 -0.08168608 0.061555292 0.098936997 0.049305886 -0.08988516 -0.014245106 -0.14080484 -0.17576447 -0.09305016 -0.023217594 0.095996872 -0.075407751 -0.10332595 -0.056819037 0.13449898 0.041755799 0.092332445 0.15037574 -0.076775797 -0.11868297 -0.10238956 0.17279619 -0.0130696 0.11202811 -0.02152225 -0.22043973 -0.21672717 -0.12017581 -0.089711368 -0.12764299 0.012436717 -0.10815194 0.08532355 0.20854111 -0.062388111 0.041873381 0.032164332 -0.27766299 0.033668287 0.10725917 -0.13994354 0.1063731 0.076314658 -0.05905794 -0.10303198 0.091423661 0.16485465 0.037515994 -0.026713893 0.089896105 0.08475589 -0.15428704 -0.053550974 -0.118607 0.17755979 0.020681065 -0.20413174 -0.052627094 0.080005914 -0.15175448 0.092968851 -0.12785833 0.055021044 0.20709723 -0.014134475 0.1206461 -0.052449189 0.076331548 -0.19506508 -0.23904401 0.16514724 0.1032164 0.13545929 0.057984028 0.099743478 0.11536679 0.090131156 0.040692512 0.19764696
iphone 0.089495867 -0.0056947772 -0.066638201 0.19870898 0.1173548 0.094735421 -0.14757296 -0.059856486 0.0051896572 0.0083533786 0.12103157 0.12511989 -0.080296017 -0.17453182 -0.046142925 0.10788508 -0.055617075 -0.10427012 -0.0097248591 -0.11344795 0.039645862 -0.093875825 0.060720824 0.11730576 0.053793307 -0.092394084 -0.024291385 -0.14389385 -0.20021248 -0.099967889 -0.029302616 0.11036672 -0.081512652 -0.1166015 -0.065560475 0.14711215 0.046396136 0.10064537 0.16464016 -0.083925247 -0.12597568 -0.10844713 0.1893279 -0.016325476 0.12085125 -0.020608364 -0.2464571 -0.24308804 -0.12921649 -0.096476085 -0.14203726 0.013979846 -0.10833842 0.10145986 0.23359324 -0.073884271 0.046415988 0.041605603 -0.30408832 0.035853934 0.11481686 -0.15041997 0.11335837 0.08605171 -0.065756366 -0.11766971 0.10167299 0.18652949 0.049865983 -0.033869527 0.095089719 0.088330671 -0.17776854 -0.061876412 -0.12305266 0.2031225 0.028289851 -0.22398466 -0.055132225 0.080713473 -0.16816732 0.10178065 -0.14424187 0.065404408 0.22317354 -0.013952683 0.12457642 -0.064490519 0.080089137 -0.21789953 -0.2549122 0.17301671 0.11618773 0.1521346 0.05986454 0.10690794 0.11748658 0.091782816 0.040650204 0.2108524
vodafone 0.076128118 -0.010732434 -0.061857499 0.18909101 0.10735913 0.082886837 -0.13013798 -0.055085517 0.012788563 0.0089048445 0.10779779 0.12303003 -0.077672303 -0.16132489 -0.044734921 0.099928938 -0.060432151 -0.096780464 -0.006189886 -0.10528865 0.032000948 -0.078797981 0.06022102 0.10622656 0.051751532 -0.081508711 -0.015887311 -0.13405472 -0.18185537 -0.092841372 -0.031715173 0.10156321 -0.070957005 -0.11136107 -0.064940028 0.12976268 0.034376364 0.093163453 0.14283577 -0.076810367 -0.12154104 -0.10128371 0.17171793 -0.01912529 0.11818852 -0.021141788 -0.22731534 -0.22506092 -0.11338221 -0.088736832 -0.12363613 0.014212587 -0.10013209 0.087429039 0.20957859 -0.066469945 0.034521408 0.040040515 -0.28275135 0.030549049 0.10546423 -0.13950214 0.10270282 0.081507497 -0.062105883 -0.10827323 0.093618736 0.16846402 0.043935325 -0.027038947 0.087600164 0.086069904 -0.15913856 -0.0514929 -0.119072 0.17989357 0.03074589 -0.20293497 -0.047706299 0.076662295 -0.15982011 0.10108541 -0.13588829 0.060592812 0.20895001 -0.014185488 0.1230873 -0.059537858 0.076208569 -0.20323542 -0.23620535 0.1639622 0.1018818 0.13089003 0.057832438 0.097181849 0.11626178 0.084491998 0.039473444 0.19607511
avea 0.059096683 -0.0039864518 -0.047319669 0.14604586 0.080388092 0.062652901 -0.10795546 -0.045319695 0.0028363948 0.0022819724 0.081894159 0.094116658 -0.057393283 -0.12486758 -0.02956303 0.072858214 -0.041137017 -0.075594448 -0.0072398894 -0.086285487 0.022491455 -0.065006919 0.044531815 0.085539885 0.040939711 -0.069906868 -0.011406817 -0.10873424 -0.1405624 -0.067645669 -0.01805363 0.076322466 -0.057311568 -0.087394573 -0.04345594 0.10432453 0.034297056 0.078547515 0.11347147 -0.063975133 -0.096358895 -0.083933301 0.13404141 -0.010425521 0.086674869 -0.0179446 -0.17565466 -0.17748436 -0.094836064 -0.072233498 -0.099046394 0.013720984 -0.07780993 0.072765239 0.16332804 -0.050352395 0.025709473 0.030516867 -0.22390941 0.023624931 0.084691741 -0.11170192 0.086456023 0.058913454 -0.049667325 -0.079162344 0.0713128 0.13337739 0.027867274 -0.028313164 0.069865912 0.063076921 -0.12724102 -0.049578 -0.08560174 0.14571324 0.015849262 -0.16204804 -0.038595829 0.057006795 -0.11732525 0.07849858 -0.10308815 0.0476234 0.16155785 -0.004602157 0.091106482 -0.043048512 0.061936505 -0.15531664 -0.1881101 0.1254032 0.087890252 0.11121594 0.04605139 0.074499287 0.09077806 0.071095496 0.03412937 0.15544209
sonra 0.07708618 -0.0043168403 -0.053381227 0.18266474 0.10061974 0.089171812 -0.13210909 -0.056599349 0.012925289 0.0015397203 0.10565868 0.12325884 -0.072134949 -0.15546879 -0.043216594 0.093292281 -0.049343307 -0.094873786 -0.011114605 -0.098240539 0.031777415 -0.076532662 0.060885608 0.099506319 0.053944327 -0.086929806 -0.018774543 -0.13385619 -0.17632166 -0.083620876 -0.03041094 0.097009107 -0.068821847 -0.11014101 -0.055907857 0.13534547 0.040147357 0.08935333 0.14746904 -0.078605413 -0.11387917 -0.10700689 0.17349976 -0.012624906 0.11807256 -0.018277233 -0.22576413 -0.22020893 -0.11227334 -0.08861611 -0.11966169 0.01586706 -0.10655925 0.090135314 0.20530434 -0.065033227 0.038286436 0.033091344 -0.27989849 0.031293694 0.10422714 -0.14352688 0.10515164 0.078765079 -0.062329061 -0.10635206 0.088513047 0.162863 0.041290022 -0.031711776 0.085039213 0.081733748 -0.15115264 -0.05405923 -0.11092045 0.18085667 0.022478517 -0.20049636 -0.04474479 0.076964356 -0.15466654 0.097801752 -0.13259771 0.052496638 0.20587865 -0.0096318666 0.1128695 -0.053012788 0.069057487 -0.19663334 -0.23384543 0.16240425 0.10714164 0.13745776 0.050613444 0.097267531 0.11183761 0.091411687 0.037936792 0.19650295
turkcellin 0.073007733 -0.0026095225 -0.054723147 0.17258172 0.10159041 0.08530695 -0.12959658 -0.046015125 0.010573198 0.007539453 0.10908407 0.10970346 -0.067537777 -0.14954832 -0.03429585 0.098145537 -0.053455327 -0.095061563 -0.005471054 -0.10410994 0.028261872 -0.081994817 0.058197547 0.10364308 0.047176052 -0.078233346 -0.022108912 -0.1294158 -0.17115939 -0.080775134 -0.028779222 0.088855334 -0.069258861 -0.098073274 -0.056483384 0.13091485 0.041099437 0.093343861 0.13544178 -0.074962124 -0.10813789 -0.098753385 0.1665037 -0.012015258 0.11399649 -0.020557353 -0.21945281 -0.21052793 -0.11613924 -0.088772222 -0.12337726 0.017544834 -0.10121789 0.084440634 0.20477325 -0.066694871 0.034409478 0.039659649 -0.26940924 0.030561112 0.094080336 -0.13988534 0.096635841 0.075076528 -0.058292918 -0.097041823 0.0901777 0.16527778 0.037162215 -0.024195533 0.082595609 0.081286438 -0.1515429 -0.050834686 -0.11227015 0.17395893 0.026497336 -0.19759476 -0.04275614 0.070958182 -0.14685503 0.098665945 -0.12161309 0.051424127 0.20296644 -0.0083777988 0.11387219 -0.053100634 0.074100435 -0.18634431 -0.22741665 0.15895171 0.099400356 0.12764682 0.050169345 0.092312962 0.10627183 0.082905442 0.033785742 0.19319507
sana 0.06562192 -0.010814006 -0.052843437 0.16057263 0.096063368 0.074645922 -0.11775149 -0.048253335 0.0098182494 0.0031672961 0.096169055 0.10912997 -0.067403659 -0.13691805 -0.032101393 0.092042908 -0.043840412 -0.079893939 -0.0036189267 -0.096387438 0.024909385 -0.074078746 0.050226182 0.096308343 0.044138506 -0.07946568 -0.018632678 -0.12081788 -0.15870355 -0.079764001 -0.020687835 0.08673612 -0.064656436 -0.095164195 -0.059093341 0.11443602 0.03280941 0.078257822 0.13158175 -0.067489155 -0.10569078 -0.095078498 0.15682499 -0.015997004 0.10685094 -0.016117629 -0.19583976 -0.19533588 -0.10257301 -0.082312405 -0.11017616 0.0081790853 -0.08732447 0.082934231 0.18656696 -0.055317957 0.034540966 0.027454017 -0.25090665 0.032467563 0.089158289 -0.12379671 0.09280657 0.072736263 -0.059003994 -0.090236165 0.08240509 0.15239696 0.031584483 -0.025636353 0.077136546 0.070285738 -0.14272474 -0.054201219 -0.097805314 0.15651143 0.025472915 -0.18023825 -0.041303415 0.06662257 -0.14015798 0.089067973 -0.11837599 0.048165064 0.18563657 -0.0048670545 0.10280957 -0.053435199 0.063663535 -0.17346607 -0.21015167 0.1491864 0.091934986 0.12400761 0.044960152 0.084038138 0.09995275 0.082514785 0.034547132 0.17874634
turkcelle 0.072145395 -0.0045869718 -0.047113869 0.16308565 0.089176022 0.079512954 -0.11540106 -0.049342781 0.011751005 0.0035920732 0.1006662 0.10415403 -0.065995313 -0.13337925 -0.03257478 0.087055683 -0.04722726 -0.08228083 -0.0032510892 -0.091400161 0.025515947 -0.065566435 0.05351245 0.089068919 0.041745886 -0.075845234 -0.012675545 -0.12108938 -0.15893112 -0.076196469 -0.025912231 0.087183356 -0.067020819 -0.098921314 -0.057480663 0.11720351 0.036175162 0.086194642 0.13035724 -0.061570201 -0.10682055 -0.088837922 0.15028222 -0.017141253 0.10279574 -0.01197694 -0.19846563 -0.1960316 -0.10122149 -0.082085051 -0.10726228 0.0077020503 -0.093009599 0.076843664 0.18867818 -0.055706702 0.030942949 0.02747185 -0.2466616 0.029569045 0.088604167 -0.12740324 0.09452077 0.067544296 -0.052521981 -0.095050111 0.075655051 0.14683534 0.037916992 -0.02678992 0.077445924 0.065946653 -0.13933335 -0.045400448 -0.10284264 0.15725066 0.025720669 -0.18300636 -0.046085525 0.067880236 -0.13661867 0.090709284 -0.11360094 0.051532574 0.17864749 -0.0076014306 0.10478831 -0.052756567 0.063209318 -0.17514694 -0.20715915 0.14149074 0.09349221 0.1214124 0.042371832 0.084389985 0.098733574 0.075687498 0.038371377 0.16886835
sms 0.079673596 -0.0090262014 -0.053495441 0.1845338 0.1110032 0.089583226 -0.13216309 -0.049467094 0.0050540469 0.0062020533 0.11471968 0.12617715 -0.072381407 -0.15766692 -0.041510273 0.10441255 -0.055871852 -0.10022581 -0.0049638436 -0.10799367 0.03568735 -0.084916845 0.05416913 0.10820242 0.050639194 -0.0840699 -0.015473295 -0.13527207 -0.17682773 -0.089294195 -0.025310043 0.098007731 -0.075374037 -0.10937494 -0.065722004 0.12977447 0.039357491 0.098590977 0.1492226 -0.080405831 -0.11521602 -0.10784516 0.17212151 -0.017348491 0.11925004 -0.024301743 -0.23405775 -0.22270304 -0.12399471 -0.086425662 -0.13059622 0.015457709 -0.10672393 0.091362655 0.21966329 -0.071206935 0.037682544 0.031930316 -0.28379381 0.028693184 0.10003833 -0.14711089 0.10847422 0.082230732 -0.060187664 -0.10044911 0.086364262 0.17098521 0.045646112 -0.030856002 0.087361075 0.077349931 -0.16292667 -0.055960581 -0.11245971 0.18757829 0.030491235 -0.20513909 -0.05329667 0.081708975 -0.15940323 0.10226406 -0.13052796 0.053225636 0.21137638 -0.010905459 0.12602563 -0.053296924 0.078134395 -0.20420441 -0.24417679 0.16927607 0.10732218 0.14017387 0.050947901 0.092987977 0.11350919 0.086953044 0.043889608 0.20540154
türkcell 0.079109974 -0.010337456 -0.058608621 0.18190603 0.10351513 0.079441458 -0.13005868 -0.04801752 0.0045167403 0.0033773333 0.10291321 0.12175137 -0.072765186 -0.15750363 -0.044832516 0.093304656 -0.054280464 -0.091946043 -0.013462302 -0.099736594 0.032989144 -0.08010383 0.058512233 0.098357253 0.052591238 -0.080460891 -0.018859059 -0.12918489 -0.17752779 -0.091233857 -0.027002739 0.092176586 -0.071992487 -0.099507727 -0.06078542 0.13286689 0.039169725 0.094356619 0.14298058 -0.06894774 -0.11156653 -0.10098255 0.1727684 -0.02198522 0.11216533 -0.022895526 -0.22438209 -0.21377648 -0.11513341 -0.082632206 -0.12709998 0.015868818 -0.098580904 0.086370528 0.2020057 -0.070322029 0.036545791 0.037991423 -0.27567637 0.032562591 0.10042068 -0.13622282 0.10612392 0.072091781 -0.061122768 -0.10198021 0.085823841 0.16823243 0.044552661 -0.032652322 0.084899224 0.079787053 -0.15882809 -0.056102395 -0.11043295 0.17834923 0.026666574 -0.19650935 -0.042250853 0.077782094 -0.15263689 0.098072074 -0.1224663 0.058300108 0.20606799 -0.015653916 0.1164095 -0.054150738 0.077604041 -0.19646417 -0.23217227 0.156156 0.1008597 0.12973948 0.052604053 0.091812447 0.11004926 0.091627546 0.039002273 0.19402456
olsun 0.060511559 -0.006446837 -0.049209751 0.14625499 0.08234252 0.071867667 -0.10517528 -0.041396324 0.0090409135 0.0087341517 0.083334655 0.095442653 -0.061862659 -0.12303929 -0.035449378 0.076119639 -0.04667538 -0.078185163 -0.0040698801 -0.084916443 0.023505013 -0.06683059 0.04269129 0.078410141 0.043561332 -0.066569269 -0.013511305 -0.11117657 -0.14473569 -0.069909178 -0.019704645 0.078831941 -0.054664779 -0.090651438 -0.048724353 0.10659899 0.032111313 0.073959172 0.11407024 -0.059648685 -0.093912415 -0.079400428 0.13807385 -0.015349437 0.089975491 -0.017793303 -0.17903611 -0.17296244 -0.089880943 -0.066272587 -0.098430775 0.015763028 -0.086210683 0.075276837 0.17264692 -0.056316055 0.035756659 0.024758954 -0.22525553 0.02755597 0.086432137 -0.11531155 0.080375805 0.058944326 -0.051426146 -0.083989717 0.067044415 0.13933988 0.035159312 -0.021552293 0.066814154 0.066238448 -0.12752192 -0.046789151 -0.087498762 0.14320883 0.022496281 -0.16029152 -0.03584148 0.058773883 -0.11975271 0.081896998 -0.10672978 0.041785456 0.16432866 -0.012216565 0.09796837 -0.043878302 0.062187232 -0.15510263 -0.18787393 0.12786722 0.0834032 0.11257747 0.03844757 0.08017008 0.087924145 0.073539935 0.033624768 0.1564294
la 0.074420922 -0.014136535 -0.064340152 0.181759 0.099573679 0.076890662 -0.13044895 -0.0459112 0.015752343 0.0067281388 0.11531626 0.11895651 -0.077222295 -0.16262576 -0.038597688 0.094981909 -0.045636643 -0.086907528 -0.012957008 -0.10280199 0.03865844 -0.081152648 0.063514993 0.10469799 0.049340796 -0.078093953 -0.014660278 -0.12908214 -0.1834752 -0.087361932 -0.018604837 0.10412832 -0.058844827 -0.11404356 -0.067432277 0.13883798 0.025525786 0.088813789 0.15285552 -0.081445195 -0.12039881 -0.11020505 0.17899781 -0.016035352 0.12414276 -0.021167561 -0.22641909 -0.22231342 -0.12151531 -0.10014512 -0.13108721 0.013406432 -0.10430081 0.083738223 0.21254463 -0.064333707 0.044182248 0.042656604 -0.27317417 0.036791079 0.093327157 -0.14361431 0.10244944 0.082922459 -0.053120773 -0.09456446 0.082887456 0.16909254 0.032154031 -0.03294431 0.083402567 0.08519166 -0.16083179 -0.055013362 -0.12098377 0.17498304 0.019493822 -0.21220462 -0.050112993 0.073934153 -0.16198595 0.103739 -0.12290546 0.057977367 0.20609225 -0.0086659398 0.1190218 -0.062743977 0.065131478 -0.19844216 -0.22210059 0.16649124 0.10900132 0.13028504 0.061009407 0.10305967 0.10434327 0.09511812 0.033593651 0.2010657
s 0.075896911 -0.00078374875 -0.051725551 0.16289762 0.096279204 0.080017582 -0.12037523 -0.051609356 0.0052193087 0.0085941721 0.10669548 0.11235253 -0.06738326 -0.1428719 -0.036368504 0.090627529 -0.047124259 -0.082858622 -0.009522019 -0.097045831 0.035963573 -0.07704366 0.054596454 0.097774491 0.049197998 -0.077343151 -0.021573627 -0.12833753 -0.16681217 -0.077373326 -0.026448 0.091298059 -0.064471222 -0.094903655 -0.061385654 0.12382527 0.032417342 0.088787995 0.13878931 -0.073603816 -0.10599501 -0.09783534 0.15308198 -0.018049384 0.10233302 -0.021558337 -0.20723437 -0.19663805 -0.11361205 -0.086191855 -0.12050433 0.016039139 -0.089982234 0.085332304 0.19640619 -0.059395723 0.035344377 0.03407478 -0.26033342 0.023930803 0.089930587 -0.13234374 0.090685435 0.0718771 -0.058064472 -0.094567508 0.087447904 0.15662284 0.038228858 -0.025517151 0.082639083 0.076037072 -0.15081115 -0.053001858 -0.10819882 0.16413784 0.022245094 -0.18793149 -0.049884442 0.067536213 -0.13861695 0.090592109 -0.12386012 0.053778872 0.19101946 -0.0062543228 0.10896681 -0.04581112 0.06767074 -0.17812453 -0.22222278 0.14721113 0.093733877 0.12560077 0.055409435 0.091798753 0.10703605 0.084748425 0.039773863 0.18580513
bile 0.078849085 -0.010614265 -0.05627092 0.18548439 0.10605358 0.086196668 -0.12635715 -0.046883646 0.0053231996 0.0094457138 0.10646085 0.12161586 -0.071618117 -0.15451199 -0.037322149 0.099018753 -0.05726888 -0.098601274 -0.012287287 -0.10423993 0.0328307 -0.082697615 0.052614443 0.10348212 0.054408617 -0.08700946 -0.015030305 -0.13760167 -0.17356008 -0.088820547 -0.026519276 0.096388623 -0.067296818 -0.10867764 -0.058143958 0.13329269 0.038752884 0.088939533 0.146283 -0.071404412 -0.11497448 -0.10619158 0.17393325 -0.012258555 0.11227822 -0.018810615 -0.22771224 -0.22224604 -0.11489377 -0.089923821 -0.12466156 0.018376946 -0.1061537 0.091887102 0.21484305 -0.066653267 0.041679975 0.040228244 -0.27992082 0.032443285 0.10455292 -0.14016533 0.10851407 0.08027713 -0.066395529 -0.10449535 0.093384475 0.16345239 0.038350638 -0.026935378 0.088407405 0.078676678 -0.15274689 -0.058637552 -0.1133321 0.18442529 0.025287798 -0.20401128 -0.046033923 0.078299485 -0.14943828 0.094642527 -0.12797417 0.060368665 0.20151637 -0.0094559556 0.11452807 -0.052689333 0.075617462 -0.2001365 -0.23244908 0.15906608 0.10094908 0.13261704 0.05191014 0.098473787 0.11045299 0.087722585 0.040011443 0.19876754
bugün 0.067571163 -0.0050610499 -0.051914707 0.16146559 0.09610448 0.077827163 -0.11453364 -0.049775917 0.0071375058 0.0080983536 0.096869223 0.11285902 -0.068550862 -0.13816376 -0.039472133 0.085340679 -0.048206814 -0.082362428 -0.0084973406 -0.092707008 0.035098482 -0.070735 0.049469013 0.093015 0.047818214 -0.073570892 -0.019170824 -0.11995414 -0.16452478 -0.076274201 -0.021476675 0.085636504 -0.066071972 -0.097763814 -0.058324326 0.11872862 0.030075056 0.086525396 0.12760583 -0.064456634 -0.10883518 -0.090032443 0.1575329 -0.018585475 0.10607131 -0.019357804 -0.20889477 -0.19899908 -0.10563562 -0.080688193 -0.11529764 0.014453317 -0.091696762 0.083269939 0.1867801 -0.064216591 0.038539361 0.033620823 -0.24886167 0.029135397 0.097603902 -0.13129956 0.097253256 0.073705442 -0.058266744 -0.09361624 0.082804069 0.14859109 0.041160326 -0.031676453 0.074269198 0.072774962 -0.14079951 -0.053744357 -0.10728867 0.16866121 0.027429633 -0.18253432 -0.041584264 0.070951894 -0.14296751 0.090091251 -0.12219959 0.047835894 0.18424091 -0.0049592247 0.10840991 -0.052703932 0.070175037 -0.17856959 -0.21302167 0.15074053 0.092736952 0.11843247 0.046250351 0.089965247 0.097994566 0.081797235 0.033830717 0.17638262
seni 0.071942545 -0.010566666 -0.048838157 0.16629595 0.10065131 0.081933424 -0.11499497 -0.048317071 0.0045678047 0.0074917115 0.099714205 0.10701947 -0.069932781 -0.14150004 -0.033046924 0.087221831 -0.052286491 -0.089202717 -0.0056106262 -0.09345194 0.0283603 -0.07124082 0.05020535 0.09449181 0.043204036 -0.077190965 -0.011791558 -0.12307611 -0.16071005 -0.085179456 -0.019638496 0.083882578 -0.062779948 -0.095954917 -0.053406581 0.12449628 0.037643842 0.081731655 0.13515554 -0.070093796 -0.10096242 -0.094466887 0.15336736 -0.013681973 0.10908578 -0.018053964 -0.20360965 -0.20273058 -0.11046001 -0.081429049 -0.10985112 0.015190063 -0.091754697 0.077390105 0.18801717 -0.06445235 0.033381745 0.03567772 -0.25137991 0.025664339 0.093322434 -0.13147102 0.095823243 0.073263235 -0.058119208 -0.089008346 0.083932482 0.14693476 0.041583732 -0.02366407 0.072412543 0.073571354 -0.14400873 -0.051427778 -0.099516921 0.16439949 0.022528842 -0.18515661 -0.041197293 0.06785363 -0.13830189 0.086732149 -0.11997834 0.053544328 0.18527415 -0.0095251696 0.10995815 -0.054562099 0.069605418 -0.17976055 -0.21381168 0.15194885 0.094789505 0.12212761 0.044214647 0.088900656 0.09782812 0.079465933 0.032134987 0.17412002
yeni 0.060824767 -0.006444592 -0.042542376 0.1557592 0.088170148 0.07682085 -0.10504653 -0.045354899 0.0069556655 0.0010497259 0.087620854 0.10306147 -0.064907037 -0.13475859 -0.031742197 0.081382662 -0.046865158 -0.077760413 -0.0052377181 -0.090203673 0.02729038 -0.064824827 0.051278271 0.090634845 0.046754006 -0.075355724 -0.011658455 -0.11266375 -0.15322733 -0.078762516 -0.020146936 0.08191096 -0.055363927 -0.093096904 -0.047111508 0.11558409 0.032767043 0.081152588 0.12567528 -0.060869396 -0.099016719 -0.08528991 0.1453325 -0.014234089 0.096628867 -0.011801657 -0.18629248 -0.18728198 -0.096472487 -0.071792185 -0.10896701 0.010459945 -0.085070692 0.074981481 0.18286255 -0.058203675 0.032559499 0.031298555 -0.23732179 0.026930228 0.089421801 -0.12360156 0.090011604 0.069579087 -0.053462133 -0.08569061 0.07365112 0.14394937 0.030893164 -0.02722854 0.074029244 0.064661644 -0.13621831 -0.04269914 -0.094379723 0.15634218 0.019577119 -0.17425281 -0.041355688 0.064588279 -0.12839043 0.086806014 -0.10508504 0.053026248 0.17497642 -0.0070236446 0.10253882 -0.048049316 0.061808273 -0.16565059 -0.19811463 0.13935547 0.089692742 0.11836746 0.049110807 0.079677813 0.095356293 0.077571109 0.037321862 0.16754329
ay 0.080143042 -0.0081284018 -0.051326256 0.18599977 0.10320179 0.082708463 -0.13055979 -0.056818049 0.006856842 0.0048095332 0.10696147 0.11700749 -0.078488573 -0.16048141 -0.045320828 0.097176805 -0.054917146 -0.095794328 -0.0124483 -0.10305648 0.032930065 -0.082081556 0.056726575 0.10633186 0.055045012 -0.088828489 -0.02000721 -0.13946597 -0.17799984 -0.089786611 -0.022384815 0.10135689 -0.068433039 -0.10569242 -0.058998913 0.13400629 0.043248687 0.093840778 0.14280137 -0.07933265 -0.12257249 -0.10116635 0.17633793 -0.021545954 0.11792094 -0.019865667 -0.23033552 -0.22080268 -0.11608226 -0.092992313 -0.12534353 0.01000399 -0.10268531 0.087987795 0.2112917 -0.071265347 0.038201332 0.037272718 -0.28417969 0.034116924 0.10428955 -0.14290631 0.10555903 0.079334863 -0.061096188 -0.10457738 0.089775458 0.16912585 0.045919143 -0.034108642 0.089672796 0.079600804 -0.16175607 -0.059741385 -0.11164099 0.18365613 0.02493199 -0.20474462 -0.04344989 0.075168356 -0.15617757 0.095641881 -0.13634844 0.058778111 0.20314009 -0.0079257032 0.12195166 -0.057533916 0.074290261 -0.19570297 -0.24295174 0.16230983 0.10516638 0.13738699 0.050600138 0.099599138 0.11245883 0.084504776 0.040186491 0.19928342
hala 0.072689369 -0.0038349044 -0.052328441 0.17663999 0.10113219 0.079902984 -0.12593082 -0.051902737 0.011081626 0.0025011741 0.10374738 0.11819091 -0.070410937 -0.15300116 -0.041895453 0.090489186 -0.050993521 -0.090655148 -0.0079197939 -0.10001469 0.033987217 -0.081655234 0.058031283 0.10215613 0.048794247 -0.08000344 -0.016402641 -0.12850681 -0.16890338 -0.085538425 -0.030680502 0.098046482 -0.068993188 -0.10212406 -0.05905905 0.13111335 0.034057021 0.09370967 0.14684094 -0.074745275 -0.11551744 -0.10355154 0.17062242 -0.020493647 0.11269382 -0.015031937 -0.22022298 -0.21468133 -0.1189665 -0.083010465 -0.11977544 0.01414803 -0.09955655 0.085380398 0.21031494 -0.064004831 0.040651686 0.040428422 -0.27327183 0.030861154 0.095740765 -0.13523141 0.10596514 0.071741618 -0.061093412 -0.10159259 0.086339779 0.16722424 0.043136407 -0.034303375 0.081757471 0.078616761 -0.15623279 -0.057600137 -0.10602681 0.17321013 0.027319947 -0.20114762 -0.045090973 0.074619479 -0.15479851 0.095300183 -0.12495282 0.050545044 0.2016459 -0.0089237886 0.11576237 -0.050903603 0.076497316 -0.19304278 -0.23121707 0.16239798 0.099244706 0.12618944 0.05486872 0.096081682 0.10571577 0.082600459 0.044021755 0.19543666
değil 0.071921416 -0.006563188 -0.049561709 0.15927213 0.095584512 0.07529898 -0.10919712 -0.040839158 0.0047142417 0.00042191986 0.100349 0.10759887 -0.063225426 -0.13215342 -0.035287607 0.08376424 -0.046297181 -0.084677726 -0.0091538765 -0.090234779 0.027263828 -0.07357607 0.050541386 0.087311104 0.041970775 -0.073828004 -0.016091369 -0.117075 -0.16010037 -0.080276132 -0.027376723 0.083987549 -0.059726711 -0.089605726 -0.053905856 0.11587967 0.031463888 0.081002891 0.1250384 -0.064731255 -0.10742608 -0.088516764 0.15290742 -0.015253534 0.10482902 -0.017991392 -0.20030335 -0.19259416 -0.10212361 -0.07647305 -0.10733142 0.016246993 -0.091304466 0.074461341 0.18051255 -0.058932401 0.028777022 0.026842592 -0.2403215 0.030699819 0.090869099 -0.12584405 0.091317669 0.071858473 -0.052246809 -0.091854945 0.075899795 0.14266509 0.032060742 -0.024772268 0.072316021 0.067471243 -0.14034152 -0.05395497 -0.1004677 0.15550166 0.024526071 -0.17490298 -0.041275166 0.065048799 -0.13184993 0.088050097 -0.11710887 0.045265622 0.17952831 -0.0043486794 0.10580175 -0.044590864 0.06113689 -0.17557505 -0.20726284 0.13800664 0.087091424 0.11847236 0.045752615 0.084080607 0.096460164 0.079271264 0.037164696 0.17250679
olarak 0.073452637 -0.0015718761 -0.05472701 0.17452227 0.10485462 0.083068199 -0.11940566 -0.048901502 0.014095508 0.0095334388 0.10222284 0.11756808 -0.069190942 -0.15000814 -0.03936325 0.095878154 -0.047731444 -0.09219224 -0.0066761719 -0.10287073 0.034181125 -0.080638222 0.052753132 0.10130145 0.054082483 -0.080835536 -0.018266594 -0.12510185 -0.16596903 -0.085759394 -0.029488076 0.088412583 -0.063351251 -0.10470577 -0.058815986 0.12853052 0.037168268 0.088985063 0.14077519 -0.070483878 -0.11258445 -0.093502939 0.16272175 -0.016792469 0.10748248 -0.019915547 -0.21203941 -0.21365319 -0.11093547 -0.085353941 -0.11924048 0.012148782 -0.097717099 0.085019551 0.20033114 -0.061935153 0.038188275 0.038765412 -0.26099747 0.030342689 0.10005765 -0.13588968 0.10432641 0.076816663 -0.062125348 -0.10292723 0.087936245 0.16223377 0.034582429 -0.031955644 0.082708359 0.072444245 -0.14897548 -0.053371239 -0.11224396 0.17391546 0.02379402 -0.19876508 -0.05049558 0.072475612 -0.14733578 0.093727157 -0.12006969 0.05624783 0.19600651 -0.011844872 0.11416249 -0.052456159 0.067312211 -0.18926649 -0.22083189 0.15134513 0.1049536 0.12917587 0.052223537 0.094181545 0.11067554 0.080138057 0.037118994 0.18662634
zaman 0.057089571 -0.001083188 -0.038030334 0.12841523 0.073553786 0.060973421 -0.088294305 -0.038165223 0.008135803 0.0078571476 0.080534801 0.08500094 -0.050655406 -0.11133707 -0.023950838 0.073345289 -0.039321035 -0.065557525 -0.0037200029 -0.0755134 0.026314866 -0.053228069 0.041537486 0.069199175 0.036889195 -0.056781974 -0.010382598 -0.096141264 -0.12755559 -0.062320173 -0.017402707 0.067657337 -0.047621306 -0.078876369 -0.041681673 0.095705733 0.021880953 0.067508146 0.10070208 -0.049143463 -0.077034436 -0.068121739 0.12034916 -0.013224377 0.076506838 -0.017186414 -0.15981369 -0.15814339 -0.076626174 -0.060120713 -0.084184289 0.0055095456 -0.069889545 0.06116768 0.14594455 -0.045828763 0.023577714 0.022577776 -0.19648789 0.026816279 0.068377465 -0.10280709 0.069255829 0.053350449 -0.042984277 -0.073270917 0.059401657 0.11239094 0.027765684 -0.020486778 0.062203869 0.052826788 -0.1122321 -0.043464683 -0.080931589 0.12420204 0.021008369 -0.14004491 -0.03798594 0.054096673 -0.11089919 0.072088636 -0.095781505 0.037858028 0.1477914 -0.0088671073 0.08367487 -0.036787063 0.049169548 -0.13280913 -0.16056614 0.11635771 0.071987674 0.093995877 0.04050754 0.068534985 0.078615196 0.060475711 0.032129973 0.13460831
benim 0.065554231 -0.0023866806 -0.049672332 0.17056243 0.094691105 0.072827615 -0.11787206 -0.052184604 0.0059459941 0.0062202285 0.094874099 0.11012418 -0.066102892 -0.14492677 -0.034245923 0.086227581 -0.047698751 -0.087994024 -0.012542648 -0.096970052 0.032762323 -0.073465534 0.050963461 0.090547331 0.043910626 -0.074443169 -0.016793618 -0.12236408 -0.16489419 -0.080748729 -0.027404044 0.088562191 -0.061919611 -0.096545011 -0.060284182 0.12145943 0.038895741 0.080899812 0.13503769 -0.064965114 -0.10811401 -0.095690735 0.16019684 -0.014954684 0.10209209 -0.019257566 -0.20745695 -0.20043328 -0.10874826 -0.077943809 -0.11500008 0.016435387 -0.094007105 0.08273048 0.18883178 -0.056192242 0.032137025 0.033878919 -0.25226927 0.03316341 0.091435619 -0.12927648 0.094147161 0.07256788 -0.061089706 -0.099370725 0.082781278 0.1509122 0.040201563 -0.031972107 0.073885418 0.069553033 -0.13842694 -0.054283362 -0.10134573 0.16823426 0.019959023 -0.18838938 -0.043064874 0.065834932 -0.13776898 0.087583922 -0.11909863 0.050792374 0.18916056 -0.0091675287 0.10408925 -0.049888693 0.065350719 -0.18262815 -0.2166118 0.14815198 0.095365785 0.12123536 0.049946979 0.083701193 0.097916171 0.084457181 0.034332752 0.17723994
artık 0.065304048 -0.0046068849 -0.047876384 0.14977619 0.084764309 0.068247974 -0.11358954 -0.040788285 0.0029246975 0.007778639 0.087861881 0.10496486 -0.060457002 -0.13497794 -0.031506367 0.083181284 -0.049345538 -0.084174737 -0.0083256019 -0.088568702 0.026588485 -0.064944051 0.043677606 0.083919138 0.047672912 -0.074169911 -0.016112912 -0.11195595 -0.15293127 -0.069403663 -0.018645415 0.081287049 -0.055656858 -0.087580688 -0.046850778 0.10965297 0.033335537 0.081691965 0.11704619 -0.068136558 -0.099912331 -0.084905595 0.14727503 -0.012581179 0.096941598 -0.014566841 -0.1913449 -0.18476681 -0.10274678 -0.076061599 -0.1062614 0.007828638 -0.087464638 0.071499936 0.17366526 -0.056423932 0.035314307 0.030701702 -0.23540591 0.0240648 0.090291589 -0.11417197 0.092601642 0.067884088 -0.052389424 -0.090192951 0.078999691 0.14432317 0.030675197 -0.021340828 0.068267934 0.064643949 -0.1309253 -0.043733917 -0.095414706 0.15366186 0.02403027 -0.16867763 -0.041097634 0.063201338 -0.12713413 0.079878591 -0.11195787 0.051439214 0.17298152 -0.0082665225 0.1025144 -0.045710269 0.059799641 -0.1612628 -0.20060994 0.13551676 0.092434324 0.10974489 0.044943735 0.075612813 0.089779653 0.074918106 0.036631703 0.16902439
in 0.063257396 -0.00074861775 -0.044056829 0.14749382 0.092476808 0.075870968 -0.10396183 -0.045225222 0.0031210382 0.0064574541 0.088640265 0.097054824 -0.062661693 -0.13031811 -0.033701446 0.084007539 -0.049362257 -0.078302003 -0.0079421913 -0.083763987 0.031888753 -0.065078415 0.050219078 0.087579377 0.042512245 -0.073809139 -0.0158366 -0.11590936 -0.15051341 -0.070553839 -0.019067237 0.079852574 -0.058329202 -0.085624561 -0.046550967 0.11168157 0.030335203 0.072268412 0.11805473 -0.059134524 -0.095442742 -0.085681729 0.13938789 -0.014582463 0.094678015 -0.013919137 -0.18762064 -0.18744367 -0.097713113 -0.074886531 -0.10715788 0.016083909 -0.08173047 0.07028842 0.17702489 -0.053113315 0.031678017 0.025503136 -0.22846396 0.022270903 0.085903838 -0.11640441 0.082988188 0.064244799 -0.046314955 -0.082367323 0.069549657 0.13797955 0.032512937 -0.026283961 0.073892474 0.062314499 -0.13278216 -0.050759383 -0.093750373 0.15266243 0.01867662 -0.16660021 -0.03532546 0.06032531 -0.12391292 0.084347136 -0.11207566 0.044181928 0.17118074 -0.0086058173 0.1008281 -0.046866745 0.058888696 -0.15954699 -0.19551715 0.13153638 0.089866936 0.10713476 0.046342049 0.081462733 0.090874881 0.076617561 0.032259922 0.1638267
sadece 0.076968014 -0.0055180811 -0.053737585 0.18449537 0.10491566 0.081158586 -0.12412152 -0.053366896 0.01263822 0.00067121926 0.11069161 0.1143907 -0.0742357 -0.15161127 -0.038395666 0.099585131 -0.054907631 -0.092034996 -0.0042907433 -0.10354043 0.037499737 -0.077501796 0.053208534 0.10100133 0.049949169 -0.085315861 -0.023021935 -0.13315901 -0.18009456 -0.086423442 -0.02228909 0.097546741 -0.069609359 -0.10645972 -0.063261516 0.12872358 0.037453588 0.09152355 0.14199084 -0.075306073 -0.11652538 -0.099627629 0.16910203 -0.017069209 0.10897008 -0.016790556 -0.22264786 -0.21299492 -0.11331399 -0.089288235 -0.12601411 0.017118899 -0.105511 0.087143146 0.20625035 -0.065702878 0.038651336 0.037002977 -0.27175081 0.028351402 0.099242955 -0.14267907 0.10444513 0.073888585 -0.06020204 -0.10324422 0.084933296 0.16791551 0.044725806 -0.033053473 0.080034472 0.08188346 -0.15761213 -0.058068532 -0.11163685 0.17415388 0.024067754 -0.20502974 -0.052041151 0.077175535 -0.15101728 0.097680606 -0.12700461 0.059919648 0.20282209 -0.0093716364 0.11929236 -0.057936821 0.07845474 -0.19991902 -0.23613124 0.16022849 0.099389255 0.13483368 0.0524524 0.092405312 0.10451221 0.087379105 0.040239941 0.19273748
oldu 0.060060844 -0.0066441623 -0.045235954 0.1406197 0.074191086 0.060068093 -0.096286893 -0.038050711 0.0041091479 0.0088191601 0.082649074 0.085942961 -0.053211451 -0.1168315 -0.031833816 0.070395753 -0.037929509 -0.066360041 -0.0054007564 -0.07447657 0.0205481 -0.056989484 0.046054021 0.077949092 0.040043037 -0.058670092 -0.011185164 -0.10459119 -0.13321202 -0.067947224 -0.024301527 0.067786328 -0.050483383 -0.084900118 -0.049102034 0.094421484 0.024544824 0.073275208 0.11237583 -0.052716132 -0.088457868 -0.076174937 0.12471193 -0.016314527 0.084179871 -0.015470335 -0.17277516 -0.16861558 -0.087949716 -0.064124152 -0.095973991 0.00545095 -0.080407768 0.062181618 0.15791315 -0.053460259 0.02516352 0.023141185 -0.20650451 0.023238847 0.072923839 -0.10322227 0.074270584 0.061262835 -0.044835258 -0.076146312 0.063717552 0.12358269 0.030208606 -0.020250769 0.064954646 0.063104309 -0.12157048 -0.037276205 -0.079903454 0.13660043 0.023107661 -0.15581501 -0.03076 0.053227738 -0.11383194 0.07329309 -0.093084335 0.042178586 0.15210745 -0.0082827117 0.091649339 -0.043643419 0.058337092 -0.15112352 -0.17877419 0.11870776 0.079437807 0.095838778 0.043324806 0.071078956 0.085445955 0.069810987 0.026346672 0.15110907
turkcellden 0.081428088 -0.010268627 -0.057778891 0.20031779 0.11366067 0.087495714 -0.14227553 -0.058904272 0.010053027 0.0088845603 0.11568017 0.13178252 -0.081879497 -0.16652812 -0.040490143 0.10319789 -0.060971856 -0.099001564 -0.0095706359 -0.11202185 0.032406971 -0.083858907 0.058105212 0.10695463 0.053419948 -0.08977294 -0.023583692 -0.14776659 -0.19509129 -0.097671323 -0.027526228 0.10660255 -0.076939389 -0.12084187 -0.063700266 0.1469626 0.041052267 0.10001692 0.15598938 -0.082854174 -0.12554081 -0.11482462 0.1904137 -0.021805458 0.12586325 -0.024541058 -0.24493766 -0.24259822 -0.13188599 -0.092727207 -0.13183972 0.012320627 -0.11095456 0.096392408 0.23201902 -0.071276054 0.041405603 0.034812853 -0.2988551 0.03097024 0.11327551 -0.15095705 0.11497189 0.08755444 -0.070256501 -0.11675959 0.09711761 0.17970075 0.039707646 -0.036435436 0.088381432 0.087198965 -0.1663758 -0.058769226 -0.1278899 0.19137639 0.023747237 -0.22168325 -0.047640294 0.077419914 -0.16261558 0.104877 -0.14290623 0.060423758 0.22850867 -0.0093547981 0.1308279 -0.063935876 0.075511336 -0.21184073 -0.25994793 0.1734596 0.11706675 0.1442814 0.05572743 0.10514821 0.11608513 0.096561842 0.047921747 0.21077271
reklam 0.062348913 -0.0047650705 -0.044061024 0.13418667 0.080578089 0.068491578 -0.099361293 -0.037762634 0.0096463189 0.00081422477 0.084420189 0.088569045 -0.05141199 -0.11621273 -0.027013391 0.074037977 -0.04362845 -0.076544583 -0.012166497 -0.075891785 0.027989099 -0.065501131 0.039494462 0.074429378 0.04409017 -0.066386551 -0.01336992 -0.10142291 -0.13877706 -0.066342697 -0.02147931 0.068854958 -0.049092092 -0.08005093 -0.046377301 0.095493041 0.026424291 0.069301583 0.10608038 -0.054600362 -0.087123387 -0.075186498 0.13034515 -0.011131572 0.084272906 -0.015098302 -0.17443517 -0.16855107 -0.093217634 -0.06571693 -0.09910845 0.012450556 -0.082582638 0.071709216 0.16311574 -0.046490174 0.02570428 0.030649595 -0.21074085 0.029252006 0.079184182 -0.10843565 0.075844817 0.057453167 -0.047583394 -0.078703411 0.068313703 0.13004401 0.027088339 -0.027221343 0.06824135 0.057448938 -0.12127929 -0.045516212 -0.090218313 0.13217525 0.016481971 -0.1568666 -0.034698028 0.056244683 -0.11564256 0.071891204 -0.10343094 0.042229522 0.15343827 -0.011245865 0.090110771 -0.045425046 0.053787719 -0.15178491 -0.17758068 0.12329702 0.081738763 0.10272218 0.042760033 0.075881638 0.08450298 0.070789017 0.029190591 0.15227853
icin 0.07455267 -0.0039530764 -0.054022029 0.17545055 0.095433392 0.082220815 -0.12364026 -0.05344341 0.013723928 0.0064368946 0.10820656 0.11653168 -0.066094555 -0.14710383 -0.03778851 0.093965389 -0.052723564 -0.086551093 -0.0059326761 -0.10337764 0.036320545 -0.07873179 0.056822654 0.093152426 0.049260832 -0.080998436 -0.01544818 -0.13022028 -0.17078526 -0.081728525 -0.022487232 0.091841318 -0.068568856 -0.10501803 -0.061110981 0.12568334 0.031584308 0.08325433 0.13472869 -0.065823458 -0.1145881 -0.1004357 0.16351555 -0.018153401 0.10720075 -0.020561719 -0.21344824 -0.20833223 -0.11081441 -0.08207421 -0.11889586 0.0089224437 -0.098341778 0.086269647 0.20076907 -0.067995839 0.035149977 0.033658814 -0.26309666 0.029593429 0.094220124 -0.13261442 0.10378114 0.071645722 -0.055563547 -0.094170302 0.088288099 0.1567741 0.03553896 -0.033164527 0.079056114 0.075308651 -0.15147893 -0.055471957 -0.11111297 0.17224468 0.023938807 -0.19501059 -0.047880959 0.069464803 -0.14809164 0.09098959 -0.12045363 0.053308554 0.19337523 -0.011632917 0.10708016 -0.054331146 0.07003022 -0.18321306 -0.21889928 0.14838298 0.10289589 0.1273537 0.051858276 0.094585098 0.099783845 0.080039918 0.040997036 0.18858081
geldi 0.062444389 -0.009196966 -0.049229331 0.15474714 0.090587273 0.071585223 -0.10678522 -0.042222537 0.0046190508 0.0088438671 0.090453677 0.10392324 -0.065520644 -0.13384664 -0.0310483 0.080642261 -0.043557145 -0.075323813 -0.0039583771 -0.084482171 0.031845421 -0.065385029 0.051028389 0.089674599 0.045969516 -0.075728014 -0.01332093 -0.11213741 -0.15062302 -0.069181919 -0.018492797 0.080278017 -0.059644751 -0.092334218 -0.049359143 0.10684028 0.026785398 0.078315064 0.11869935 -0.063883752 -0.095393956 -0.0878198 0.1406128 -0.01506313 0.098960958 -0.017007604 -0.18467875 -0.18477847 -0.096974388 -0.070121422 -0.10281637 0.010411956 -0.088495426 0.0729912 0.17915107 -0.059768591 0.029389743 0.034231145 -0.23444644 0.022084218 0.08611194 -0.11300784 0.086714916 0.063181981 -0.050175473 -0.091287374 0.079140939 0.13411856 0.032761868 -0.026544588 0.074247964 0.071862936 -0.12596436 -0.051284183 -0.09222535 0.14561617 0.018854659 -0.1669431 -0.038915429 0.066931732 -0.12576392 0.078901283 -0.11374474 0.049588349 0.16745816 -0.013259763 0.094653271 -0.044596188 0.059219304 -0.16579325 -0.19838202 0.13804971 0.087451793 0.11604356 0.040503297 0.078451157 0.095200382 0.069203898 0.036375891 0.16308968
den 0.053915486 -0.0016701033 -0.044304274 0.13183922 0.073327303 0.057275888 -0.096426062 -0.037320867 0.0069568292 0.0036149314 0.080941238 0.084891632 -0.057061546 -0.10765595 -0.029705359 0.070673414 -0.041500386 -0.069093168 -0.0083075808 -0.075066514 0.019974586 -0.05357549 0.043120507 0.075514689 0.039269038 -0.057379197 -0.0091741104 -0.092046976 -0.12497838 -0.067783378 -0.0229338 0.07301905 -0.052524723 -0.075770974 -0.047042683 0.093426153 0.024676966 0.068638839 0.10375468 -0.053438637 -0.086919293 -0.076689422 0.11794519 -0.015131566 0.083905436 -0.013315116 -0.1632579 -0.1527019 -0.079029664 -0.060040064 -0.093528926 0.0068788733 -0.075186588 0.060243271 0.14677426 -0.049758751 0.022902699 0.022569379 -0.19489005 0.018499373 0.078182667 -0.10599119 0.070192583 0.052902099 -0.047613256 -0.069069453 0.060482848 0.12236269 0.028636405 -0.017848559 0.057747018 0.057550356 -0.11392756 -0.037005302 -0.076695703 0.13075779 0.020962566 -0.14747612 -0.031935576 0.057825793 -0.10733023 0.066142812 -0.093332015 0.04264538 0.15125792 -0.0029564369 0.084363118 -0.037857208 0.051118456 -0.14383292 -0.171505 0.11607367 0.074675068 0.099844635 0.033561319 0.073029503 0.082040399 0.06396731 0.032550234 0.14533125
yine 0.05513249 -0.00039925947 -0.043351177 0.13494717 0.076434195 0.060980562 -0.099213317 -0.036990963 0.0024163877 0.0086788526 0.083913408 0.089175142 -0.056692131 -0.11747992 -0.031496655 0.073927484 -0.043855626 -0.075786605 -0.0042503034 -0.08186806 0.027119109 -0.057865463 0.043947522 0.07607238 0.039425682 -0.065028377 -0.016838394 -0.10195319 -0.12905791 -0.066334389 -0.024359452 0.075933687 -0.048033014 -0.080786504 -0.046941545 0.094096079 0.029778315 0.073769756 0.10423753 -0.059778158 -0.081895903 -0.076478295 0.12478714 -0.0087353084 0.085644625 -0.013739357 -0.16286962 -0.16280262 -0.08505594 -0.062858388 -0.094653368 0.0087366803 -0.073830843 0.065661937 0.16144101 -0.0497653 0.027790241 0.028853079 -0.21023135 0.02281373 0.07769271 -0.10933497 0.078081042 0.057596166 -0.044691954 -0.074554265 0.066613719 0.12519333 0.027350038 -0.017648021 0.063047774 0.059290837 -0.11749517 -0.04007896 -0.085219383 0.13828368 0.024176886 -0.15159442 -0.033505324 0.057952698 -0.11130842 0.073741525 -0.10063406 0.045735452 0.15025471 -0.011546874 0.086197391 -0.042453364 0.055730533 -0.14610742 -0.18076904 0.11694202 0.076610774 0.095435105 0.041089993 0.074878469 0.085689954 0.065122753 0.029395346 0.14802609
g 0.068273857 -0.0067041097 -0.049632818 0.16865565 0.09696836 0.075320512 -0.12263451 -0.044958133 0.0084727099 0.00014985631 0.10161366 0.11016803 -0.064638354 -0.14111164 -0.041029267 0.093988501 -0.048001889 -0.086806618 -0.0063040094 -0.10095233 0.026672358 -0.069207549 0.057395943 0.097718015 0.051253967 -0.074965194 -0.017304711 -0.12729891 -0.16153514 -0.081916399 -0.026460154 0.086234055 -0.065862648 -0.095746793 -0.053442754 0.12307904 0.031464573 0.086266123 0.13209182 -0.06523937 -0.11258237 -0.09324573 0.15818177 -0.016247233 0.1095385 -0.020133339 -0.2089044 -0.20029028 -0.11179214 -0.081254669 -0.11670091 0.011138762 -0.098297201 0.082806282 0.19855773 -0.057189673 0.034483567 0.032118674 -0.25910521 0.027043223 0.092074156 -0.12659153 0.096036486 0.068607368 -0.055919126 -0.097900487 0.085367441 0.15426719 0.040565189 -0.026637293 0.082600288 0.070196144 -0.14900753 -0.056656957 -0.10150568 0.1689382 0.020165112 -0.18845947 -0.043668151 0.072879516 -0.14320527 0.090678446 -0.12013508 0.049082864 0.19258761 -0.0088909985 0.1082128 -0.055026677 0.073083006 -0.17974618 -0.21309516 0.14494452 0.099067181 0.12455399 0.046861324 0.087314472 0.10587373 0.079604037 0.035325676 0.18572479
turkcel 0.054722887 -0.00078793208 -0.042159121 0.1380917 0.085298531 0.062418319 -0.096174531 -0.039944265 0.004817599 0.0037954936 0.083466187 0.089013718 -0.059320629 -0.11786771 -0.03550145 0.07998991 -0.042608861 -0.077168062 -0.0053361505 -0.076392554 0.021583039 -0.059976149 0.048186865 0.076371029 0.035581216 -0.060608063 -0.010808221 -0.1057491 -0.13307694 -0.063179977 -0.018295662 0.077891335 -0.055816811 -0.080623023 -0.044995956 0.103334 0.025767602 0.066567056 0.11015042 -0.060664106 -0.090959541 -0.082467541 0.13561703 -0.014428583 0.083668038 -0.013721674 -0.16784081 -0.17240539 -0.090280727 -0.070785023 -0.097972035 0.011024151 -0.082830913 0.064633548 0.16630998 -0.047375336 0.025942175 0.027692316 -0.21353912 0.027615806 0.075698711 -0.10976071 0.07929448 0.056313019 -0.047996689 -0.078102551 0.067399286 0.12349834 0.027007075 -0.02789929 0.06416627 0.06121771 -0.11650295 -0.043869957 -0.091563888 0.13440545 0.015198471 -0.16014114 -0.033570711 0.060585976 -0.12019848 0.070644282 -0.095552772 0.039460953 0.15321475 -0.0047262674 0.095258892 -0.042229716 0.060909152 -0.1550162 -0.18442309 0.12856609 0.084475532 0.1022699 0.044676125 0.071828663 0.083017237 0.063257501 0.033663612 0.15328743
lan 0.053347714 -0.0012093921 -0.038199011 0.13933407 0.084082238 0.066960789 -0.10183727 -0.040885404 0.01004352 0.00093425857 0.084615581 0.094535284 -0.055674247 -0.11544667 -0.035324525 0.070761219 -0.037175998 -0.071080998 -0.0048872624 -0.082157053 0.020688521 -0.060979269 0.047578234 0.075635716 0.04025811 -0.063713983 -0.013161333 -0.10241103 -0.13734059 -0.068686061 -0.019956369 0.071807258 -0.055934578 -0.081536964 -0.040646959 0.09502127 0.026445366 0.064991802 0.10869913 -0.060441684 -0.087540761 -0.081156053 0.13007435 -0.010624753 0.086329058 -0.0098015349 -0.17383403 -0.16309534 -0.083880767 -0.068494894 -0.090649478 0.0093467925 -0.074317999 0.064157568 0.16090961 -0.049537208 0.026521562 0.023589458 -0.21340488 0.021830613 0.082388088 -0.10529151 0.076421246 0.059397575 -0.045053855 -0.079618216 0.063400961 0.1289323 0.032734197 -0.02709158 0.066589274 0.061977737 -0.12198161 -0.043296561 -0.081024691 0.137504 0.019174853 -0.15349683 -0.031358074 0.059087571 -0.11586321 0.071349055 -0.096952178 0.03782098 0.15461077 -0.0091152592 0.087901346 -0.041729957 0.05705855 -0.15176646 -0.17626886 0.11878721 0.082030728 0.10212267 0.039157562 0.069689706 0.07930924 0.063061655 0.029473057 0.14881413
bende 0.053604383 -0.0059149778 -0.036526036 0.12720378 0.072658636 0.063840561 -0.094319671 -0.033740096 0.001681465 0.0018937115 0.079231739 0.082704693 -0.051816791 -0.1130472 -0.027789159 0.071984701 -0.04022168 -0.063964643 -0.0054600877 -0.069356002 0.024607053 -0.061779361 0.036500752 0.072359733 0.0360258 -0.063422516 -0.012149017 -0.099314727 -0.12192946 -0.062961146 -0.021721557 0.068762824 -0.051017173 -0.078778647 -0.043324493 0.088390291 0.023650121 0.069584601 0.099043459 -0.050575346 -0.086441241 -0.068775393 0.12583807 -0.013730166 0.084578723 -0.014445682 -0.16311899 -0.15636888 -0.077774227 -0.062462106 -0.089073956 0.011409996 -0.07279405 0.063398279 0.15144898 -0.049491238 0.023330342 0.028171867 -0.19436817 0.018587159 0.0686519 -0.096254393 0.078667037 0.059023906 -0.043255884 -0.076794446 0.063560866 0.11436038 0.033018976 -0.024384115 0.063585155 0.055153508 -0.10818381 -0.037535135 -0.0768435 0.13172182 0.020202996 -0.13774303 -0.031396013 0.049185444 -0.10548734 0.066294909 -0.092238352 0.042538337 0.14024083 -0.011156947 0.079990767 -0.037689134 0.054256529 -0.13645867 -0.16457255 0.11705305 0.074158736 0.096068673 0.038165752 0.071546517 0.073986858 0.061923824 0.025056284 0.14205991
çeker 0.051888797 -0.003216956 -0.036085155 0.11080234 0.061623421 0.051377378 -0.079581633 -0.033776697 0.01056205 -0.0012287389 0.067992307 0.072040893 -0.040108774 -0.096481279 -0.026827626 0.055499643 -0.034896925 -0.0583078 -0.0059020873 -0.059005484 0.023843894 -0.045372602 0.035810232 0.064576492 0.035467219 -0.050817426 -0.016178701 -0.087188646 -0.11076134 -0.056063019 -0.012495467 0.056556121 -0.040687855 -0.066320471 -0.038994789 0.079208605 0.018802278 0.060376592 0.088716045 -0.047721222 -0.066095531 -0.066853307 0.10057189 -0.012443759 0.074262321 -0.010644685 -0.13622437 -0.13422444 -0.075859889 -0.056763489 -0.07141564 0.0074973074 -0.058407512 0.056552026 0.12341508 -0.041693173 0.024336124 0.025425326 -0.16437662 0.024428999 0.066464171 -0.080988698 0.068173833 0.050635017 -0.041498359 -0.061065242 0.05389649 0.098211199 0.025628017 -0.017653035 0.049181767 0.047217865 -0.096094586 -0.034813907 -0.068209998 0.11259265 0.010945867 -0.11907891 -0.026522145 0.046303578 -0.09569332 0.059737302 -0.079105213 0.034221578 0.12744099 -0.010129144 0.06921877 -0.035359453 0.047360923 -0.11722565 -0.13782848 0.09685085 0.05955518 0.07772325 0.032152146 0.059042551 0.064960063 0.050996862 0.022648513 0.11658217
hat 0.069136381 -0.0079906341 -0.044775616 0.15877035 0.091647886 0.070238829 -0.11943053 -0.040424876 0.0052071149 0.00066104537 0.097811557 0.10871018 -0.060062937 -0.14178687 -0.03790956 0.084630489 -0.050987832 -0.086123325 -0.0045991498 -0.08762864 0.031507537 -0.076128677 0.055060066 0.086617596 0.045813169 -0.072255991 -0.012781678 -0.11651143 -0.15635686 -0.0810467 -0.02731755 0.090203606 -0.066072494 -0.098352239 -0.057347443 0.11665352 0.031468257 0.085562855 0.12415238 -0.069880128 -0.10715316 -0.091751114 0.14854535 -0.012370625 0.099313565 -0.013019437 -0.20238577 -0.19010104 -0.10448352 -0.083235562 -0.10787386 0.012238129 -0.090772167 0.077266879 0.18418704 -0.060880166 0.033711709 0.026487522 -0.2498496 0.026945455 0.09273608 -0.12836751 0.097289763 0.068171576 -0.057603505 -0.095863588 0.07673417 0.14285132 0.040081639 -0.031365898 0.070605971 0.074195877 -0.1408191 -0.053743538 -0.095340773 0.15955992 0.021195212 -0.17756967 -0.046473961 0.068873532 -0.1314894 0.088933311 -0.11523046 0.052373987 0.18093212 -0.0085759116 0.10087992 -0.046217948 0.06279321 -0.17831405 -0.20901786 0.14387365 0.094191276 0.12304553 0.051617116 0.084678046 0.099896677 0.081293784 0.033950314 0.17447221
telefon 0.073393613 -0.0041834163 -0.054488938 0.17244171 0.1014271 0.07934244 -0.12006914 -0.043766581 0.0052974704 0.0044767936 0.097008638 0.11375448 -0.06731455 -0.14440049 -0.035586938 0.092320889 -0.048551295 -0.083288245 -0.01082704 -0.095442101 0.028259402 -0.075545155 0.0544044 0.097015582 0.047979079 -0.084351137 -0.014212632 -0.13011724 -0.16954193 -0.079570889 -0.027044294 0.086800605 -0.070557624 -0.096902207 -0.052238766 0.11941104 0.03855316 0.086796902 0.1324614 -0.069621429 -0.11149582 -0.099525295 0.15742971 -0.01590794 0.10238776 -0.022206478 -0.20655915 -0.20514201 -0.10980237 -0.084873818 -0.11173777 0.010766444 -0.091715127 0.080199502 0.19869201 -0.058484193 0.035190295 0.031005584 -0.25399315 0.030505361 0.096571624 -0.13171302 0.093358539 0.074379653 -0.052207228 -0.09518408 0.084883772 0.15674879 0.03670885 -0.025572093 0.0831533 0.07085029 -0.14013585 -0.05458688 -0.10368793 0.1712641 0.022298332 -0.18287589 -0.045570962 0.072116017 -0.14657861 0.088579454 -0.11897601 0.051498685 0.19471407 -0.0084158061 0.11038674 -0.053910434 0.07205236 -0.1778872 -0.22209363 0.14710045 0.099371918 0.11964038 0.044403952 0.090295538 0.10585053 0.084758461 0.035821185 0.18120033
saat 0.063770175 -0.0028077073 -0.053270482 0.15829469 0.092779167 0.069708496 -0.11479167 -0.044029761 0.0094378563 0.0060369088 0.091143072 0.10158262 -0.062551491 -0.13312508 -0.030667756 0.086593635 -0.048863895 -0.082527138 -0.013516618 -0.091125555 0.030047894 -0.067195319 0.045237649 0.085627779 0.047634318 -0.073629297 -0.012261136 -0.11503945 -0.15816343 -0.078831561 -0.027425844 0.079729788 -0.056895077 -0.094356403 -0.054182291 0.11829213 0.035471916 0.075256355 0.12603417 -0.069371484 -0.10125773 -0.085745893 0.15128745 -0.015334564 0.099127017 -0.013760665 -0.19215676 -0.18835472 -0.097106531 -0.079836585 -0.1030727 0.0084406594 -0.086726226 0.081327103 0.17944404 -0.058051318 0.03644342 0.034444343 -0.23538496 0.030946258 0.090068728 -0.12153137 0.089690976 0.065850817 -0.057605397 -0.093004584 0.073088452 0.1463457 0.031979475 -0.021279268 0.07177221 0.073874801 -0.13664851 -0.04893969 -0.094798297 0.15200482 0.026529431 -0.17860517 -0.041432455 0.064544253 -0.13609283 0.086994536 -0.10843114 0.049598556 0.17285237 -0.0099368589 0.096997999 -0.049269449 0.060886517 -0.16760278 -0.20442878 0.14110875 0.09324456 0.11496653 0.040887408 0.078287974 0.096727431 0.073810756 0.034648921 0.16508244
fiber 0.066592097 -0.00081878656 -0.051244948 0.15664533 0.093475699 0.07383585 -0.10543595 -0.047988161 0.0080273952 0.0058954549 0.093093507 0.10167993 -0.063419633 -0.13689063 -0.036234125 0.077820152 -0.048769809 -0.084949106 -0.01317602 -0.092167236 0.025194595 -0.067579955 0.043204892 0.091163337 0.048444781 -0.075904064 -0.020785779 -0.11530222 -0.15466397 -0.075824261 -0.021700235 0.083374679 -0.0621938 -0.087288603 -0.048144966 0.11458432 0.035439342 0.077587999 0.11936792 -0.061722837 -0.096365362 -0.091480792 0.1413592 -0.018483035 0.093270257 -0.012728443 -0.1901826 -0.18772852 -0.097880803 -0.073504709 -0.10480414 0.012079448 -0.088708617 0.072816901 0.18274044 -0.05139656 0.030336248 0.028865872 -0.23169944 0.027995734 0.084845603 -0.11961698 0.09250021 0.06517306 -0.051008016 -0.086737879 0.077512592 0.14550151 0.036828063 -0.025973428 0.075683177 0.071194403 -0.13045841 -0.047034945 -0.093411908 0.15484215 0.020342566 -0.16774608 -0.036768854 0.064797811 -0.12994552 0.084577091 -0.11142796 0.042634554 0.17243078 -0.013995226 0.098553039 -0.048502803 0.06262099 -0.17038783 -0.20400234 0.13675302 0.09111169 0.10976364 0.045328777 0.084853418 0.094468586 0.071745686 0.03072192 0.16602449
dk 0.089695379 -0.0044673122 -0.060206242 0.21447727 0.1207442 0.099385366 -0.15378012 -0.063892581 0.00856899 0.007006783 0.12616293 0.14185622 -0.084051922 -0.18145408 -0.049753182 0.11855037 -0.063373834 -0.10571598 -0.015301538 -0.11715411 0.037262678 -0.092806667 0.067461476 0.12135712 0.063055292 -0.09902665 -0.02019801 -0.15400259 -0.20287189 -0.097470187 -0.030593056 0.11555069 -0.082455449 -0.12235429 -0.07461559 0.1499064 0.038644373 0.10344853 0.17175734 -0.090824924 -0.13436118 -0.11396667 0.19821399 -0.017276166 0.13143013 -0.02368539 -0.26294488 -0.25763068 -0.13789143 -0.10113515 -0.14741139 0.019304095 -0.12500699 0.10671519 0.24548605 -0.074335501 0.047164805 0.046753559 -0.32455128 0.040945053 0.11664985 -0.16933066 0.11993284 0.086512916 -0.068691082 -0.11741295 0.10582361 0.19109853 0.04801302 -0.038395464 0.10063666 0.095720969 -0.18035333 -0.061690934 -0.12983453 0.20750917 0.030690705 -0.23674405 -0.057128448 0.089648388 -0.17804462 0.11196554 -0.1556237 0.070225261 0.23572099 -0.0083308406 0.14261918 -0.068742149 0.081671588 -0.23167858 -0.27601296 0.19117267 0.12625541 0.15458237 0.060370356 0.10772291 0.12898153 0.10013458 0.047120288 0.23085664
son 0.069440417 -0.0017307426 -0.045517176 0.16647401 0.093263336 0.078801416 -0.11831465 -0.045366034 0.0070406324 0.0035681087 0.10043146 0.10217551 -0.060884375 -0.13916373 -0.032831613 0.088568248 -0.054278675 -0.084724531 -0.0037486472 -0.08892221 0.029245486 -0.070012324 0.053273916 0.09211494 0.047462136 -0.072830088 -0.016598687 -0.1213019 -0.16359459 -0.076546304 -0.024975631 0.08956515 -0.063668393 -0.093121096 -0.053214751 0.11907595 0.036641911 0.082347013 0.12509735 -0.06846799 -0.10247342 -0.092700832 0.15102577 -0.019253097 0.10610729 -0.016352206 -0.19789378 -0.19679248 -0.10466827 -0.078647904 -0.10735386 0.013895311 -0.090834424 0.07879176 0.18895061 -0.06492801 0.039071586 0.031061411 -0.24841644 0.023894552 0.088423684 -0.13004294 0.096057855 0.064378709 -0.053897545 -0.092857167 0.076981626 0.15150402 0.034006037 -0.023227191 0.07852941 0.070123948 -0.14250053 -0.046143327 -0.099242479 0.16248961 0.022565657 -0.18205415 -0.041685082 0.071830541 -0.14150189 0.084338754 -0.11974088 0.054307498 0.18676521 -0.0068632085 0.108246 -0.050294433 0.064049788 -0.17714772 -0.21443871 0.14898889 0.097399317 0.11894759 0.044942562 0.089917824 0.10269052 0.075850837 0.037106432 0.17438656
ilk 0.066350617 -0.0086910557 -0.050495464 0.17043506 0.096747741 0.077444106 -0.11877047 -0.048701067 0.012275674 0.0038478556 0.097331308 0.10629471 -0.064283676 -0.148313 -0.042235192 0.088669494 -0.055555359 -0.088781297 -0.006920008 -0.097193673 0.030118499 -0.072456896 0.050506707 0.091618463 0.049076993 -0.082150467 -0.02144652 -0.12899123 -0.1604383 -0.08014828 -0.028331144 0.090365194 -0.062288333 -0.097385734 -0.059179161 0.1169604 0.035405464 0.089535728 0.13445531 -0.069950387 -0.11021916 -0.099618882 0.16184923 -0.020930467 0.10151858 -0.018110694 -0.21266176 -0.19857976 -0.10537146 -0.080752566 -0.12019306 0.0078551723 -0.099142052 0.087277904 0.18970236 -0.057078343 0.040035889 0.038399622 -0.25278717 0.032559354 0.09624625 -0.13405417 0.10055099 0.076512821 -0.054870795 -0.099151418 0.081582919 0.15354694 0.039936703 -0.028954325 0.078101881 0.074264854 -0.14508565 -0.052396923 -0.10124543 0.16568792 0.019866493 -0.18324511 -0.046984337 0.066373266 -0.14405975 0.087092377 -0.12532502 0.049394991 0.1937636 -0.0091563119 0.10848922 -0.054448053 0.06912186 -0.17837028 -0.22298189 0.1532204 0.094821095 0.12526493 0.051923536 0.088321663 0.10677539 0.079854168 0.039833508 0.18410011
bedava 0.068537384 -0.0090724798 -0.052118972 0.1573939 0.094697788 0.074015863 -0.10922131 -0.048826624 0.01015909 0.0042025298 0.09356378 0.099764444 -0.063193053 -0.12862022 -0.036130838 0.079821296 -0.049820449 -0.077878378 -0.013177312 -0.086166233 0.029429711 -0.065475568 0.046894703 0.089968078 0.04667896 -0.071232662 -0.012596116 -0.11593612 -0.15236975 -0.074922018 -0.019695772 0.082617693 -0.061000787 -0.085831776 -0.051835041 0.10863466 0.036466327 0.079600967 0.12374643 -0.062642701 -0.098713994 -0.08973325 0.14962082 -0.011195491 0.092831194 -0.012425949 -0.19016536 -0.18359345 -0.099857084 -0.074950539 -0.11013251 0.013245123 -0.090389095 0.075596765 0.18325393 -0.060262892 0.027568741 0.029897388 -0.23370726 0.03089818 0.085703477 -0.11692312 0.091774002 0.063767217 -0.047196541 -0.082679741 0.078380093 0.13874616 0.034369718 -0.027532686 0.071379118 0.067517981 -0.13451225 -0.04342382 -0.094555661 0.15194687 0.016536385 -0.17356284 -0.040456109 0.06871137 -0.13143948 0.08645837 -0.10612708 0.04316067 0.17916095 -0.0052997228 0.10354044 -0.050875932 0.067965075 -0.17087194 -0.198709 0.13470446 0.0887485 0.11420517 0.046683587 0.082145378 0.093997389 0.079634562 0.034514599 0.16588852
bence 0.060300414 -0.0057506575 -0.037112478 0.13485695 0.080302879 0.058808289 -0.095460989 -0.03254649 0.0095853731 0.0028915671 0.073932894 0.089372799 -0.051739238 -0.10786939 -0.027139004 0.067606002 -0.041964941 -0.066295624 -0.0063168602 -0.075358182 0.026192833 -0.053792872 0.040352486 0.070069231 0.036278192 -0.062428486 -0.0096143205 -0.094103575 -0.1259369 -0.062631451 -0.02093453 0.072524495 -0.053791873 -0.071998365 -0.04358181 0.097590528 0.02686703 0.070184499 0.10256864 -0.053666055 -0.088769726 -0.072301492 0.12747377 -0.013116103 0.07780879 -0.017181614 -0.16599467 -0.15314977 -0.084003516 -0.062280927 -0.08926259 0.0079069231 -0.069336578 0.068070218 0.15229377 -0.050726604 0.031880077 0.028423009 -0.19663915 0.024632631 0.077313595 -0.097816013 0.075193033 0.053030591 -0.046173286 -0.076946549 0.0642187 0.12271186 0.031861443 -0.019623233 0.060216356 0.058545891 -0.1154784 -0.043453496 -0.083072424 0.12597579 0.017438266 -0.15062116 -0.036560658 0.050894804 -0.11313938 0.073276542 -0.089275278 0.043490887 0.1490034 -0.011862647 0.089475319 -0.035303861 0.050772049 -0.1422742 -0.17410417 0.12202933 0.075607516 0.096400611 0.041440297 0.07243716 0.081792161 0.063658915 0.024677875 0.14440614
selocan 0.036637008 -0.0054408419 -0.028917216 0.083984941 0.04717689 0.040715363 -0.058941353 -0.02758613 0.0094621284 0.0032219116 0.050653551 0.057497062 -0.030003028 -0.066497765 -0.017996293 0.041819803 -0.022346241 -0.044837922 -0.0083366372 -0.051758699 0.014289814 -0.034312949 0.021351596 0.050891764 0.020591948 -0.037114959 -0.0048432276 -0.061449159 -0.079978079 -0.044168882 -0.013368764 0.04640625 -0.029415146 -0.043665845 -0.027711675 0.055525705 0.013211707 0.045253962 0.067416355 -0.030022252 -0.054290082 -0.046690647 0.078829832 -0.0097793899 0.046731479 -0.012376397 -0.098501019 -0.09809158 -0.054769937 -0.03570148 -0.054456405 0.003920665 -0.048003905 0.044767156 0.094793454 -0.034293827 0.021925827 0.013329578 -0.12524411 0.011462747 0.0480313 -0.066788577 0.042265791 0.034320526 -0.026482165 -0.051258244 0.03810446 0.079621434 0.017949693 -0.016690258 0.037159376 0.037725143 -0.071542203 -0.020763576 -0.054865099 0.084194213 0.0089198612 -0.089936659 -0.024363469 0.031670254 -0.072940998 0.043208342 -0.053889271 0.026571754 0.095605128 -0.0044987421 0.058169231 -0.028973404 0.0339044 -0.084310189 -0.10400154 0.076648548 0.048110276 0.059811626 0.028711576 0.043045904 0.054061197 0.039223298 0.014851633 0.088862874
yerde 0.059424926 -0.0033411444 -0.040952209 0.15202029 0.090507947 0.07319399 -0.11069689 -0.041794796 0.0054657809 0.0046741483 0.089310482 0.095443122 -0.055157725 -0.12625642 -0.031587366 0.084337972 -0.044699389 -0.079779141 -0.011972588 -0.086257763 0.031245667 -0.061650209 0.047935527 0.088019662 0.045957316 -0.07171502 -0.01857185 -0.10768694 -0.1477818 -0.077118166 -0.021548331 0.082977355 -0.052957669 -0.086740322 -0.046260837 0.11278681 0.030897534 0.075312063 0.11916465 -0.056933202 -0.091281883 -0.086044014 0.13560973 -0.013826349 0.097301006 -0.011060584 -0.18674558 -0.17566106 -0.095517255 -0.076501675 -0.10376894 0.0071517429 -0.088995971 0.074762046 0.17100726 -0.052395239 0.031944141 0.026910011 -0.22630331 0.031121688 0.084242575 -0.11213198 0.081939317 0.058044717 -0.045882557 -0.081105202 0.070708148 0.13891743 0.030354045 -0.021277929 0.065764196 0.064063467 -0.13005072 -0.046174124 -0.097122267 0.14870678 0.024833106 -0.16576445 -0.036973841 0.061085466 -0.13109177 0.084614672 -0.10188096 0.046990566 0.16443172 -0.0052160593 0.097998925 -0.04129985 0.060137775 -0.16475394 -0.1922107 0.13754311 0.082851969 0.11350866 0.045579411 0.078203127 0.092395715 0.075621106 0.031451952 0.15770833
sabah 0.054683283 -0.00029063565 -0.038664732 0.13640743 0.076004982 0.065518878 -0.093666904 -0.037953909 0.0032214399 0.0063745673 0.083455488 0.086377911 -0.052320972 -0.11500419 -0.030999495 0.074472822 -0.039135233 -0.067468427 -0.0085108373 -0.0774059 0.023296442 -0.061647117 0.045434393 0.080793262 0.042563077 -0.06538672 -0.015638944 -0.097025111 -0.13722728 -0.06656646 -0.01502018 0.073943079 -0.056316357 -0.081647702 -0.042604648 0.10260855 0.030203689 0.068671055 0.10334144 -0.0560713 -0.088005401 -0.078417554 0.13289456 -0.011758349 0.084154233 -0.019406311 -0.16556424 -0.16500977 -0.088704325 -0.06200403 -0.088080324 0.013509662 -0.07180614 0.071154848 0.16050959 -0.053164806 0.029989263 0.028914984 -0.20525979 0.027034389 0.07794334 -0.10004769 0.07676211 0.061490666 -0.049554344 -0.081649795 0.071050957 0.12620018 0.027188988 -0.025186127 0.060203847 0.063285306 -0.11699376 -0.044502698 -0.085525244 0.12883292 0.01680203 -0.14915921 -0.038946427 0.052096989 -0.11762591 0.076018602 -0.10094456 0.045082767 0.15398106 -0.010245865 0.082702607 -0.042307258 0.055423152 -0.14622435 -0.17820479 0.12536032 0.074038416 0.10017337 0.034572329 0.070679501 0.081143469 0.063604295 0.026169306 0.146594
reklamı 0.047898889 -0.0065144766 -0.035768356 0.10645562 0.057030499 0.05358592 -0.078402504 -0.02868253 0.0031494217 0.00020445479 0.060524989 0.064683758 -0.041506913 -0.088984005 -0.023108806 0.060390018 -0.033173777 -0.057149265 -0.0013996979 -0.064241216 0.020418942 -0.051386476 0.031155573 0.063834138 0.027280465 -0.047743041 -0.011588412 -0.073558904 -0.10639046 -0.051674735 -0.013602194 0.058086373 -0.038142424 -0.064542755 -0.037589144 0.078983374 0.019356191 0.053497016 0.086183161 -0.046304528 -0.067048036 -0.058299474 0.1013483 -0.0086670388 0.06309092 -0.013559849 -0.1325376 -0.13205856 -0.06445317 -0.049783893 -0.072815545 0.009543065 -0.06132951 0.053036895 0.1232083 -0.039262872 0.025157835 0.020638917 -0.16354051 0.018314587 0.060679369 -0.082446948 0.05745985 0.04182867 -0.034022544 -0.060785983 0.053498324 0.093026042 0.024758555 -0.012871097 0.046757974 0.049096655 -0.093230531 -0.035229538 -0.063574344 0.10836008 0.019195475 -0.11725894 -0.027832054 0.0450649 -0.08548791 0.053950891 -0.0773229 0.029242482 0.119826 -0.0037239194 0.071368657 -0.03155084 0.045979712 -0.11767351 -0.13224453 0.092828743 0.063822486 0.081895769 0.029164586 0.056742709 0.061185651 0.048519805 0.019501833 0.11103208
senin 0.04513602 -0.0054286122 -0.032021578 0.10016452 0.058116868 0.048949748 -0.065931417 -0.028018741 0.0041011339 0.0047324733 0.060353629 0.062275372 -0.03393412 -0.079428837 -0.021665474 0.052441359 -0.028677629 -0.053681001 -0.0043330882 -0.054818034 0.017384855 -0.045793425 0.030247105 0.05720786 0.029726366 -0.044986978 -0.0090927593 -0.073375843 -0.094182178 -0.051954444 -0.012990158 0.055285603 -0.042117454 -0.053078689 -0.031808887 0.07122346 0.020696441 0.054542743 0.07388705 -0.039421536 -0.05773456 -0.051808193 0.093646176 -0.013655239 0.058976185 -0.0078569725 -0.12405325 -0.12177286 -0.061600003 -0.05004875 -0.06794814 0.0037793091 -0.059161216 0.048891131 0.11583396 -0.040132836 0.024893979 0.015698673 -0.14998582 0.011884424 0.051885545 -0.073192887 0.0529381 0.03950315 -0.038046088 -0.054013792 0.04990631 0.084726669 0.025278416 -0.016380444 0.049736958 0.046013165 -0.081663907 -0.032812819 -0.056405131 0.10068895 0.015548662 -0.1056056 -0.026655424 0.040947895 -0.086316496 0.048188269 -0.068429925 0.031174831 0.10679474 -0.0047830944 0.05904996 -0.029824579 0.035011884 -0.10739665 -0.12412175 0.08923623 0.058091465 0.070042804 0.029959481 0.052218776 0.059133928 0.050465319 0.016907474 0.10937771
tcell 0.042558119 -0.0028583929 -0.031545319 0.10512932 0.064165235 0.046908256 -0.072706982 -0.029393345 0.006459502 0.0017293504 0.068974413 0.074642494 -0.038032692 -0.094261229 -0.028019648 0.06033903 -0.030207967 -0.053006928 -0.0010714321 -0.056158375 0.024237251 -0.042993791 0.037627991 0.055547547 0.031182764 -0.051445156 -0.015125492 -0.082627393 -0.10882652 -0.056244157 -0.014037343 0.053871781 -0.045141246 -0.062179435 -0.034027301 0.081381515 0.025167814 0.055738039 0.086208843 -0.043063026 -0.068255156 -0.0613144 0.10522293 -0.011792181 0.065484375 -0.013859198 -0.13126034 -0.12962118 -0.066389263 -0.048168197 -0.072035082 0.0095261438 -0.065016799 0.053231049 0.12592314 -0.038198929 0.024886202 0.020328553 -0.15846433 0.017825283 0.059013806 -0.079607643 0.05957621 0.041883469 -0.035375156 -0.055800758 0.053301111 0.097322263 0.021922659 -0.01994957 0.054114096 0.043531314 -0.093300968 -0.031867474 -0.065918848 0.10098592 0.011083276 -0.11908884 -0.029352246 0.043875508 -0.087015979 0.057999473 -0.072450638 0.034220658 0.11823738 -0.0016051109 0.073021993 -0.029263534 0.0394562 -0.11916589 -0.1391131 0.089906506 0.064339913 0.073882274 0.028415928 0.052985642 0.060476977 0.05467163 0.021560561 0.11965997
paketi 0.063114457 -0.0071699107 -0.041487549 0.14799936 0.085523143 0.064583436 -0.10209195 -0.044902664 0.0038289223 0.00075377972 0.08896362 0.10024144 -0.053780813 -0.1244726 -0.029207494 0.077985719 -0.04650715 -0.076166011 -0.011082718 -0.078695469 0.025294723 -0.06490808 0.044624764 0.082501985 0.044662807 -0.067722544 -0.017286321 -0.11178765 -0.14637774 -0.069533296 -0.018415859 0.074217737 -0.058214661 -0.084091403 -0.050752163 0.10406631 0.028209059 0.078141429 0.12020409 -0.064731091 -0.092548996 -0.077628724 0.14002739 -0.010460313 0.096578032 -0.01219523 -0.1832182 -0.17318574 -0.09290015 -0.067016624 -0.10465115 0.0065339347 -0.080418833 0.067209512 0.17285781 -0.057511143 0.033795442 0.033463702 -0.22339135 0.02053345 0.085235469 -0.11719874 0.082173668 0.059901055 -0.044196166 -0.082247056 0.075089402 0.12949404 0.035342507 -0.01920015 0.063550368 0.067784943 -0.12468479 -0.046975181 -0.094471239 0.14035624 0.020012658 -0.16283894 -0.03375857 0.060104776 -0.12531683 0.082230866 -0.10341858 0.047514785 0.16551958 -0.0092256041 0.096666999 -0.044714537 0.056513172 -0.16029967 -0.19233854 0.13015932 0.082927592 0.10336732 0.044839755 0.075982846 0.092596002 0.070373513 0.035713658 0.16104034
turkcelli 0.055236265 -0.0052941721 -0.042876728 0.1371567 0.074025318 0.065221362 -0.098573208 -0.038533457 0.0085402373 0.0047423309 0.083191663 0.08250016 -0.051863711 -0.11100033 -0.03182685 0.06843739 -0.039759982 -0.072362036 -0.007540965 -0.07445699 0.024143485 -0.056728698 0.038482673 0.076004982 0.040970612 -0.064303666 -0.015226956 -0.10051156 -0.12996972 -0.061616894 -0.01585527 0.074853398 -0.055970736 -0.081346296 -0.048635632 0.10031517 0.02670146 0.067915626 0.10783686 -0.059130669 -0.085164376 -0.072763644 0.12594853 -0.014208719 0.086422332 -0.01730708 -0.16606443 -0.16136932 -0.082979865 -0.062161669 -0.09503299 0.0096320901 -0.076651476 0.063249752 0.14955766 -0.048013374 0.025441669 0.023937687 -0.20069832 0.02653515 0.080271661 -0.10559519 0.073783092 0.05720035 -0.042569008 -0.07700678 0.065233313 0.12112692 0.028806027 -0.023817213 0.066001348 0.057174109 -0.12044434 -0.038666535 -0.087019525 0.13237141 0.020498887 -0.14501747 -0.034858815 0.052925438 -0.11081185 0.06783513 -0.098403089 0.04478167 0.15294777 -0.0074803936 0.08552935 -0.042709142 0.056893472 -0.14535919 -0.16851351 0.11986404 0.077402122 0.09908884 0.036627006 0.074597888 0.085624561 0.061975908 0.026427533 0.14339928
hayata 0.037347522 0.0013421583 -0.024313796 0.080073327 0.046586152 0.043139122 -0.061224569 -0.024241235 0.005738189 0.0086401701 0.056367178 0.05951364 -0.036630835 -0.06890583 -0.019300304 0.039616697 -0.030225122 -0.048306327 -0.0075575691 -0.043699577 0.012216545 -0.036378648 0.032075755 0.041020699 0.017829347 -0.043413106 -0.0057662958 -0.057626516 -0.085771449 -0.035801437 -0.010894445 0.042241599 -0.03725474 -0.051151447 -0.032137129 0.06320066 0.020734841 0.045273367 0.068177916 -0.034073602 -0.051031113 -0.051887978 0.082788162 -0.0088517256 0.05292955 -0.009972753 -0.098271295 -0.098181412 -0.055145841 -0.041799493 -0.057528269 0.0073805214 -0.051281415 0.041908603 0.093294322 -0.031874567 0.015738515 0.017616404 -0.12630729 0.018462216 0.044280116 -0.06350103 0.052562509 0.032468393 -0.029427426 -0.05194195 0.035984129 0.079065323 0.014346486 -0.014540439 0.044296566 0.037531022 -0.073490649 -0.026279034 -0.053004857 0.08159475 0.015856672 -0.098091833 -0.020030329 0.032016959 -0.072682023 0.043822359 -0.055526014 0.021781815 0.099166632 -0.001969957 0.053844608 -0.027197715 0.034855429 -0.09731333 -0.11429221 0.080785975 0.051494583 0.060153693 0.030403228 0.040906612 0.056208991 0.045291875 0.024064034 0.094802566
gelen 0.053211302 -0.0022848283 -0.034263577 0.12017925 0.07343363 0.053412426 -0.081201673 -0.033850394 0.006320524 0.003069733 0.072762005 0.082931414 -0.047213562 -0.10696595 -0.03120636 0.059961706 -0.032445606 -0.060676433 -0.010531349 -0.066858396 0.022027517 -0.057652432 0.040868726 0.069415003 0.036988627 -0.058910605 -0.013570664 -0.084529579 -0.11698057 -0.057235923 -0.015966443 0.060277816 -0.05058077 -0.069675662 -0.038232852 0.083471566 0.020316683 0.059061445 0.09459807 -0.053464875 -0.076586843 -0.063673995 0.113496 -0.010838469 0.07581351 -0.0094334222 -0.14778891 -0.13926581 -0.075415179 -0.056022786 -0.085512936 0.011974126 -0.072449312 0.060207497 0.13931695 -0.046679385 0.026942905 0.026727904 -0.18528776 0.015696267 0.065738015 -0.088111445 0.070554078 0.051788453 -0.040338024 -0.067325614 0.05903431 0.10993724 0.023545306 -0.019541338 0.05526799 0.056411531 -0.10052148 -0.036960755 -0.071319029 0.11735233 0.01543614 -0.13758016 -0.034177724 0.04560934 -0.10612489 0.066432185 -0.082291551 0.038719192 0.13323449 -0.0071819355 0.072604775 -0.040056329 0.04640726 -0.12717503 -0.15456498 0.10880518 0.069390617 0.085140884 0.032766901 0.065857157 0.076106541 0.056302693 0.02181408 0.13386489
turkcellde 0.058318309 -0.0016353546 -0.04503154 0.13487901 0.071983971 0.058202755 -0.092602663 -0.039009612 0.0094930418 0.0093585206 0.074098922 0.08561141 -0.053519707 -0.11119078 -0.033202641 0.07324855 -0.041086521 -0.063779339 -0.0096243303 -0.076706231 0.027345918 -0.058612533 0.037313923 0.073181376 0.038545199 -0.065195031 -0.011170563 -0.10115743 -0.12568635 -0.06043648 -0.01888792 0.071264848 -0.051344763 -0.080743983 -0.047694389 0.095939957 0.025106248 0.068659887 0.09973032 -0.052544337 -0.08628457 -0.078185223 0.12033099 -0.016287252 0.080982506 -0.013994138 -0.16308463 -0.16147546 -0.08003813 -0.065843023 -0.092257939 0.013415189 -0.077639699 0.065948613 0.14731823 -0.048377413 0.023280095 0.027250834 -0.19511284 0.025770271 0.073780015 -0.10084137 0.076953828 0.052420206 -0.049036603 -0.073992677 0.066046953 0.119886 0.026408913 -0.025256917 0.063815176 0.053342167 -0.11014976 -0.040408764 -0.081708275 0.12958211 0.020589808 -0.14144523 -0.038090575 0.058994111 -0.10563037 0.068582907 -0.092388436 0.039964486 0.14996523 -0.0038048232 0.085188404 -0.043979809 0.048376467 -0.13841663 -0.17248639 0.12035704 0.072293483 0.10106572 0.036111731 0.073765397 0.077008486 0.060665466 0.029647171 0.14013243
önce 0.052563198 -0.0032364726 -0.037662156 0.11926911 0.070698179 0.059921768 -0.089094006 -0.037986871 0.0054829032 0.007256649 0.076194763 0.080884993 -0.047584504 -0.11135447 -0.023448696 0.062972613 -0.040159643 -0.06316065 -0.011425106 -0.072764076 0.025879234 -0.052507427 0.044460155 0.075044021 0.038568769 -0.061156828 -0.015253142 -0.095444642 -0.12493936 -0.065184787 -0.020713603 0.066971578 -0.04396246 -0.075641967 -0.037715059 0.08954446 0.022621358 0.06133455 0.10028716 -0.056254521 -0.080037199 -0.073598795 0.11300058 -0.01699207 0.074144907 -0.016423319 -0.15081051 -0.14534673 -0.082961313 -0.058849473 -0.089367285 0.013070444 -0.070922911 0.056774694 0.14076273 -0.047322437 0.025412923 0.024470417 -0.18600009 0.019256171 0.070900843 -0.095504545 0.071450546 0.04913456 -0.043337297 -0.073009305 0.064723842 0.11649198 0.032427087 -0.021657063 0.061734494 0.057517953 -0.10367422 -0.037868865 -0.077582963 0.12776694 0.020373506 -0.13965677 -0.031329874 0.049054094 -0.1068406 0.066944443 -0.092099026 0.043316133 0.14026342 -0.0029263147 0.084580474 -0.038203813 0.045624759 -0.1347502 -0.15829404 0.1120467 0.073880546 0.095910124 0.031502184 0.068793215 0.071665406 0.055664696 0.023309581 0.13123487
aynı 0.061674535 -0.00047760602 -0.044724829 0.14545846 0.080614574 0.069734104 -0.096735738 -0.04430984 0.010136453 0.0053961766 0.088845439 0.09640459 -0.055539981 -0.1207263 -0.033604551 0.079294823 -0.03982221 -0.069842756 -0.004242748 -0.08315213 0.027784759 -0.059710171 0.048291583 0.074788123 0.035720434 -0.06169375 -0.016548568 -0.10736141 -0.13712443 -0.07094954 -0.018679431 0.074280091 -0.052568831 -0.083338104 -0.049976666 0.10024851 0.032546107 0.071509764 0.11703803 -0.057156153 -0.091915332 -0.078730561 0.13195135 -0.010287977 0.092229649 -0.010551728 -0.17317382 -0.16502757 -0.089520589 -0.068182163 -0.092728399 0.0097312108 -0.080377743 0.064431928 0.16579078 -0.048334394 0.034196544 0.024695635 -0.21187046 0.025717326 0.077123798 -0.10752378 0.079141185 0.06072212 -0.042397577 -0.082983673 0.06909617 0.13278852 0.032180805 -0.02527372 0.064197525 0.065150708 -0.11666698 -0.038535405 -0.083857544 0.13962731 0.016052192 -0.15918863 -0.032823164 0.056813911 -0.11982917 0.076496564 -0.10237253 0.04550869 0.16151927 -0.0036545291 0.09479823 -0.043769274 0.057938855 -0.15500984 -0.17842253 0.12189893 0.079670101 0.10172122 0.04108765 0.076671787 0.082751378 0.063665874 0.030949105 0.14795807
gün 0.061272569 -0.0049979365 -0.043699756 0.14595789 0.086247414 0.068957046 -0.11111639 -0.038767513 0.0087561021 0.0053195828 0.088261582 0.10289237 -0.060619842 -0.13045815 -0.037310243 0.082676418 -0.042629492 -0.073922388 -0.0085450001 -0.087966047 0.028497472 -0.065043323 0.050796155 0.084952347 0.038060814 -0.065248825 -0.015963964 -0.11138146 -0.14726414 -0.072400302 -0.023806166 0.075944319 -0.05417959 -0.091088891 -0.054886322 0.11172061 0.027325785 0.079439282 0.11962244 -0.062772453 -0.097961165 -0.088674292 0.14011332 -0.015252672 0.094440773 -0.020458484 -0.18492635 -0.18008782 -0.099210761 -0.074607857 -0.10491263 0.006334567 -0.085294306 0.069641642 0.17487806 -0.056733936 0.030251345 0.025677342 -0.22482601 0.030147236 0.088675737 -0.11204622 0.08750283 0.060435988 -0.047100272 -0.084777877 0.071085602 0.13983062 0.035974804 -0.021132251 0.067820825 0.070782073 -0.12636015 -0.040812008 -0.092734873 0.14831395 0.019561777 -0.16686028 -0.034445949 0.059525523 -0.12539279 0.085068636 -0.10691082 0.045270599 0.16806325 -0.0061523677 0.096344084 -0.045134891 0.065573201 -0.16076607 -0.19444603 0.13801304 0.091488115 0.10897101 0.046757922 0.082029447 0.086634442 0.068975799 0.033063058 0.15993537
kampanya 0.050413191 -0.0075938865 -0.041843634 0.12779894 0.074074514 0.063141391 -0.090153664 -0.031897377 0.008967624 0.0084684836 0.070756204 0.08188086 -0.052266322 -0.10869227 -0.027104445 0.070906796 -0.039878238 -0.065927751 -0.0069489512 -0.069548666 0.028195508 -0.050717026 0.037964202 0.070938967 0.034680732 -0.060582962 -0.013668493 -0.08914417 -0.12746896 -0.058236457 -0.018017063 0.068153851 -0.052566741 -0.071119457 -0.041967284 0.095127411 0.025786288 0.06066528 0.09952721 -0.054103877 -0.077269219 -0.067494258 0.11355823 -0.016777761 0.080428287 -0.015834285 -0.15417732 -0.15324369 -0.081784599 -0.058603629 -0.084995605 0.0049977433 -0.075909965 0.061014384 0.14670356 -0.046545055 0.021309195 0.026951574 -0.19545218 0.017094916 0.066621646 -0.097725585 0.071746759 0.054123651 -0.044819251 -0.065736316 0.061432242 0.11118547 0.031447906 -0.016894277 0.0613111 0.056337293 -0.10912799 -0.041663218 -0.077641338 0.12011903 0.014891656 -0.14098532 -0.034967404 0.048032109 -0.1048703 0.071329564 -0.086964324 0.038990479 0.13848679 -0.012347878 0.081218965 -0.03884805 0.049380194 -0.13211147 -0.15892375 0.11499868 0.068587169 0.091474876 0.036891475 0.061438795 0.080962174 0.065856293 0.022873305 0.13922945
msj 0.06098688 -0.0084099863 -0.046910226 0.153845 0.092335947 0.07548175 -0.10840515 -0.041898873 0.0045261001 0.007191394 0.09734118 0.10326353 -0.057764534 -0.13621326 -0.030055584 0.082977682 -0.045227069 -0.082740448 -0.01036163 -0.088395141 0.029738013 -0.06506449 0.052002888 0.085558452 0.046545748 -0.076813146 -0.012131613 -0.11549992 -0.14971477 -0.076169893 -0.021945493 0.080101967 -0.064347237 -0.089403026 -0.054550543 0.11052892 0.027412305 0.079902805 0.12394623 -0.067184009 -0.095266506 -0.090818316 0.15037774 -0.01558758 0.097677544 -0.01196745 -0.19273454 -0.18729401 -0.097329699 -0.077432655 -0.1085962 0.0097187003 -0.092251845 0.079711467 0.18075795 -0.056976419 0.031128747 0.026950039 -0.23202811 0.028926468 0.091606267 -0.12537296 0.088524036 0.062981002 -0.053591575 -0.090493254 0.07396508 0.13894439 0.034962736 -0.023544313 0.067706436 0.065209925 -0.1305408 -0.051691726 -0.096302107 0.15627438 0.026922813 -0.17295678 -0.038134743 0.06840042 -0.12929821 0.086704634 -0.11048119 0.045268044 0.17145151 -0.0057771159 0.098846018 -0.045509256 0.060918789 -0.17036349 -0.20285359 0.1413592 0.094129197 0.11457251 0.046437487 0.083773904 0.092373252 0.079209335 0.031237923 0.17205329
şimdi 0.057608612 -0.0018803356 -0.037796382 0.12189326 0.070697092 0.056579888 -0.089261882 -0.039777603 0.0099394275 0.0036564935 0.079067849 0.086618781 -0.054628875 -0.11237475 -0.02499022 0.070897304 -0.043265022 -0.061612785 -0.0061014607 -0.068280689 0.02080765 -0.05119976 0.042210065 0.074205697 0.035548918 -0.062498655 -0.0090032881 -0.095054142 -0.12096947 -0.057308845 -0.021382069 0.065072067 -0.052320514 -0.072633609 -0.042958915 0.0928877 0.030560816 0.061841641 0.10322443 -0.048631176 -0.082438052 -0.075633772 0.12230886 -0.0079135466 0.082126148 -0.0088036135 -0.16060984 -0.15368614 -0.078476973 -0.057786342 -0.091125622 0.0091909803 -0.072708763 0.066364884 0.1479658 -0.048434921 0.028581722 0.022626942 -0.19062552 0.026403455 0.075701185 -0.094537362 0.070714764 0.050913773 -0.040300991 -0.069826856 0.064508736 0.11745439 0.031215582 -0.024481189 0.054384794 0.052219752 -0.10887484 -0.039255295 -0.077551775 0.12572777 0.014677396 -0.14458017 -0.037458319 0.04992494 -0.11015584 0.071519904 -0.092221603 0.038723543 0.14089622 -0.0073726112 0.084444083 -0.036482856 0.049266938 -0.13868302 -0.16806751 0.11201032 0.069068559 0.094517566 0.035019886 0.064296491 0.078905709 0.059286028 0.032704771 0.13693088
